{"learner":{"attributes":{},"feature_names":[],"feature_types":[],"gradient_booster":{"model":{"gbtree_model_param":{"num_parallel_tree":"1","num_trees":"100"},"iteration_indptr":[0,1,2,3,4,5,6,7,8,9,10,11,12,13,14,15,16,17,18,19,20,21,22,23,24,25,26,27,28,29,30,31,32,33,34,35,36,37,38,39,40,41,42,43,44,45,46,47,48,49,50,51,52,53,54,55,56,57,58,59,60,61,62,63,64,65,66,67,68,69,70,71,72,73,74,75,76,77,78,79,80,81,82,83,84,85,86,87,88,89,90,91,92,93,94,95,96,97,98,99,100],"tree_info":[0,0,0,0,0,0,0,0,0,0,0,0,0,0,0,0,0,0,0,0,0,0,0,0,0,0,0,0,0,0,0,0,0,0,0,0,0,0,0,0,0,0,0,0,0,0,0,0,0,0,0,0,0,0,0,0,0,0,0,0,0,0,0,0,0,0,0,0,0,0,0,0,0,0,0,0,0,0,0,0,0,0,0,0,0,0,0,0,0,0,0,0,0,0,0,0,0,0,0,0],"trees":[{"base_weights":[9.364125E-8,-1.6537416E0,1.2652E0,-1.89886E0,-1.1075839E0,2.9367E-1,1.641495E0,-1.9300418E0,-1.1230799E-2,-1.4252851E0,-6.0972735E-2,4.577505E-1,-1.0128099E0,-4.789667E-2,1.6770899E0,-2.9425612E-2,-9.75365E-2,-7.475353E-2,9.255727E-3,4.7527444E-2,-2.7958775E-2,-1.9337198E-2,3.5472512E-2,-7.388071E-2,-1.0019379E-2,-3.5216447E-2,3.1491812E-2,5.995149E-2,8.943533E-2],"categories":[],"categories_nodes":[],"categories_segments":[],"categories_sizes":[],"default_left":[0,0,0,0,0,0,0,0,0,0,0,0,0,0,0,0,0,0,0,0,0,0,0,0,0,0,0,0,0],"id":0,"left_children":[1,3,5,7,9,11,13,15,-1,17,19,21,23,25,27,-1,-1,-1,-1,-1,-1,-1,-1,-1,-1,-1,-1,-1,-1],"loss_changes":[6.280393E2,1.5314423E1,6.1688843E1,4.18161E0,1.41123085E1,1.0902561E1,7.4384766E0,1.2569275E0,0E0,3.9532852E0,6.0692396E0,9.616716E0,1.8731918E0,1.9994639E0,4.2513123E0,0E0,0E0,0E0,0E0,0E0,0E0,0E0,0E0,0E0,0E0,0E0,0E0,0E0,0E0],"parents":[2147483647,0,0,1,1,2,2,3,3,4,4,5,5,6,6,7,7,9,9,10,10,11,11,12,12,13,13,14,14],"right_children":[2,4,6,8,10,12,14,16,-1,18,20,22,24,26,28,-1,-1,-1,-1,-1,-1,-1,-1,-1,-1,-1,-1,-1,-1],"split_conditions":[-2.549036E-1,-4.356487E-1,-1.051628E-2,2.5055287E0,-1.2566514E-1,3.6280498E-1,-3.741447E-1,-1.3818963E0,-1.1230799E-2,-2.382295E-2,-1.6823463E-1,-7.5416243E-1,4.158077E-1,1.2266299E-1,1.8608141E-1,-2.9425612E-2,-9.75365E-2,-7.475353E-2,9.255727E-3,4.7527444E-2,-2.7958775E-2,-1.9337198E-2,3.5472512E-2,-7.388071E-2,-1.0019379E-2,-3.5216447E-2,3.1491812E-2,5.995149E-2,8.943533E-2],"split_indices":[1,1,1,20,12,21,19,14,0,15,4,12,19,1,1,0,0,0,0,0,0,0,0,0,0,0,0,0,0],"split_type":[0,0,0,0,0,0,0,0,0,0,0,0,0,0,0,0,0,0,0,0,0,0,0,0,0,0,0,0,0],"sum_hessian":[2.98165E2,1.2910495E2,1.6906006E2,8.74018E1,4.1703144E1,4.769641E1,1.2136364E2,8.565376E1,1.748036E0,3.1714367E1,9.988777E0,4.295174E1,4.744669E0,2.4971943E0,1.1886645E2,1.748036E0,8.390572E1,3.046577E1,1.2485971E0,2.996633E0,6.992144E0,9.739058E0,3.3212685E1,2.4971943E0,2.247475E0,1.2485971E0,1.2485971E0,2.4722223E1,9.4144226E1],"tree_param":{"num_deleted":"0","num_feature":"25","num_nodes":"29","size_leaf_vector":"1"}},{"base_weights":[-2.547389E-4,-1.5710876E0,1.2066518E0,-1.8038373E0,-1.0524422E0,2.7784982E-1,1.567706E0,-1.8333156E0,-1.0871152E-2,-1.3545868E0,-5.6129903E-2,4.356908E-1,-9.76158E-1,-4.6561148E-2,1.6018715E0,-4.0418383E-2,-9.317624E-2,2.575602E-4,-7.215989E-2,4.582141E-2,-2.6717922E-2,-3.9998334E-2,2.9838294E-2,-7.118438E-2,-9.670538E-3,3.136636E-2,-3.497901E-2,5.9463244E-2,8.616867E-2],"categories":[],"categories_nodes":[],"categories_segments":[],"categories_sizes":[],"default_left":[0,0,0,0,0,0,0,0,0,0,0,0,0,0,0,0,0,0,0,0,0,0,0,0,0,0,0,0,0],"id":1,"left_children":[1,3,5,7,9,11,13,15,-1,17,19,21,23,25,27,-1,-1,-1,-1,-1,-1,-1,-1,-1,-1,-1,-1,-1,-1],"loss_changes":[5.6817017E2,1.3820251E1,5.6398514E1,3.7390747E0,1.2788574E1,1.0055856E1,6.793396E0,1.1789856E0,0E0,3.9531288E0,5.600047E0,9.216418E0,1.7382326E0,1.9776105E0,3.9325256E0,0E0,0E0,0E0,0E0,0E0,0E0,0E0,0E0,0E0,0E0,0E0,0E0,0E0,0E0],"parents":[2147483647,0,0,1,1,2,2,3,3,4,4,5,5,6,6,7,7,9,9,10,10,11,11,12,12,13,13,14,14],"right_children":[2,4,6,8,10,12,14,16,-1,18,20,22,24,26,28,-1,-1,-1,-1,-1,-1,-1,-1,-1,-1,-1,-1,-1,-1],"split_conditions":[-2.549036E-1,-4.356487E-1,-1.051628E-2,2.5055287E0,-1.2566514E-1,3.6280498E-1,-3.741447E-1,-1.0282335E0,-1.0871152E-2,-1.0225672E0,-1.6823463E-1,-3.972201E-1,4.158077E-1,3.302758E-1,2.3680346E-1,-4.0418383E-2,-9.317624E-2,2.575602E-4,-7.215989E-2,4.582141E-2,-2.6717922E-2,-3.9998334E-2,2.9838294E-2,-7.118438E-2,-9.670538E-3,3.136636E-2,-3.497901E-2,5.9463244E-2,8.616867E-2],"split_indices":[1,1,1,20,12,21,19,2,0,13,4,15,19,8,1,0,0,0,0,0,0,0,0,0,0,0,0,0,0],"split_type":[0,0,0,0,0,0,0,0,0,0,0,0,0,0,0,0,0,0,0,0,0,0,0,0,0,0,0,0,0],"sum_hessian":[2.976918E2,1.2921371E2,1.684781E2,8.747848E1,4.1735237E1,4.7655422E1,1.20822685E2,8.5729836E1,1.7486386E0,3.1747726E1,9.987509E0,4.290728E1,4.7481437E0,2.4966557E0,1.1832603E2,3.2491834E0,8.248065E1,1.9999701E0,2.9747757E1,2.9901795E0,6.9973297E0,4.4907684E0,3.841651E1,2.4999707E0,2.248173E0,1.2480567E0,1.248599E0,2.9371552E1,8.8954475E1],"tree_param":{"num_deleted":"0","num_feature":"25","num_nodes":"29","size_leaf_vector":"1"}},{"base_weights":[-6.556476E-4,-1.4980947E0,1.1533438E0,-1.721115E0,-1.002252E0,2.6241475E-1,1.5018643E0,-1.7492496E0,-1.0523467E-2,-1.2907884E0,-5.1595636E-2,4.1420868E-1,-9.4195807E-1,-4.5264404E-2,1.5348523E0,-2.5993494E-2,-8.842506E-2,-6.789081E-2,1.0996624E-2,4.421107E-2,-2.554116E-2,-3.1680506E-2,2.9838298E-2,-6.289188E-2,-1.4203171E-3,-3.4366276E-2,3.0885091E-2,6.288367E-2,8.5760705E-2],"categories":[],"categories_nodes":[],"categories_segments":[],"categories_sizes":[],"default_left":[0,0,0,0,0,0,0,0,0,0,0,0,0,0,0,0,0,0,0,0,0,0,0,0,0,0,0,0,0],"id":2,"left_children":[1,3,5,7,9,11,13,15,-1,17,19,21,23,25,27,-1,-1,-1,-1,-1,-1,-1,-1,-1,-1,-1,-1,-1,-1],"loss_changes":[5.156316E2,1.2636383E1,5.193274E1,3.3798218E0,1.1641869E1,9.274687E0,6.240967E0,1.1263428E0,0E0,3.610302E0,5.1705937E0,8.766638E0,1.6220989E0,1.9126188E0,3.7632751E0,0E0,0E0,0E0,0E0,0E0,0E0,0E0,0E0,0E0,0E0,0E0,0E0,0E0,0E0],"parents":[2147483647,0,0,1,1,2,2,3,3,4,4,5,5,6,6,7,7,9,9,10,10,11,11,12,12,13,13,14,14],"right_children":[2,4,6,8,10,12,14,16,-1,18,20,22,24,26,28,-1,-1,-1,-1,-1,-1,-1,-1,-1,-1,-1,-1,-1,-1],"split_conditions":[-2.549036E-1,-4.356487E-1,-1.051628E-2,2.5055287E0,-1.2566514E-1,3.6280498E-1,-3.741447E-1,-1.3818963E0,-1.0523467E-2,-2.382295E-2,-1.6823463E-1,-8.514124E-1,2.7512714E-1,-6.2039566E-1,4.3190753E-1,-2.5993494E-2,-8.842506E-2,-6.789081E-2,1.0996624E-2,4.421107E-2,-2.554116E-2,-3.1680506E-2,2.9838298E-2,-6.289188E-2,-1.4203171E-3,-3.4366276E-2,3.0885091E-2,6.288367E-2,8.5760705E-2],"split_indices":[1,1,1,20,12,21,19,14,0,15,4,12,10,23,1,0,0,0,0,0,0,0,0,0,0,0,0,0,0],"split_type":[0,0,0,0,0,0,0,0,0,0,0,0,0,0,0,0,0,0,0,0,0,0,0,0,0,0,0,0,0],"sum_hessian":[2.963905E2,1.2886981E2,1.6752069E2,8.718474E1,4.168507E1,4.7598022E1,1.19922676E2,8.543562E1,1.7491174E0,3.1704546E1,9.980525E0,4.2853085E1,4.744938E0,2.495841E0,1.17426834E2,1.7490344E0,8.3686584E1,3.0454552E1,1.2499948E0,2.980792E0,6.999733E0,5.9917364E0,3.6861347E1,3.2457776E0,1.49916E0,1.2492452E0,1.2465959E0,4.9432453E1,6.7994385E1],"tree_param":{"num_deleted":"0","num_feature":"25","num_nodes":"29","size_leaf_vector":"1"}},{"base_weights":[-8.5118256E-4,-1.4327849E0,1.1047758E0,-1.6481923E0,-9.5589703E-1,2.3589766E-1,1.4377134E0,-1.6752628E0,-1.0187304E-2,-1.2323321E0,-4.7343876E-2,3.8365757E-1,-9.0738046E-1,4.1731507E-1,1.4936852E0,-3.6010515E-2,-8.5196115E-2,2.5131924E-3,-6.588499E-2,4.2687334E-2,-2.4423834E-2,-3.9288536E-2,2.7067905E-2,-6.097352E-2,-7.6279056E-4,3.8306143E-2,-3.866103E-2,5.360813E-2,7.932133E-2],"categories":[],"categories_nodes":[],"categories_segments":[],"categories_sizes":[],"default_left":[0,0,0,0,0,0,0,0,0,0,0,0,0,0,0,0,0,0,0,0,0,0,0,0,0,0,0,0,0],"id":3,"left_children":[1,3,5,7,9,11,13,15,-1,17,19,21,23,25,27,-1,-1,-1,-1,-1,-1,-1,-1,-1,-1,-1,-1,-1,-1],"loss_changes":[4.6922256E2,1.1689728E1,4.8042053E1,3.0829315E0,1.0631004E1,8.3770895E0,6.2712708E0,1.121933E0,0E0,3.6348076E0,4.777029E0,8.316947E0,1.5786524E0,3.775446E0,2.7576904E0,0E0,0E0,0E0,0E0,0E0,0E0,0E0,0E0,0E0,0E0,0E0,0E0,0E0,0E0],"parents":[2147483647,0,0,1,1,2,2,3,3,4,4,5,5,6,6,7,7,9,9,10,10,11,11,12,12,13,13,14,14],"right_children":[2,4,6,8,10,12,14,16,-1,18,20,22,24,26,28,-1,-1,-1,-1,-1,-1,-1,-1,-1,-1,-1,-1,-1,-1],"split_conditions":[-2.549036E-1,-4.356487E-1,-1.5998416E-2,2.5055287E0,-1.2566514E-1,3.6280498E-1,-2.5216687E-1,-1.0282335E0,-1.0187304E-2,-1.0225672E0,-1.6823463E-1,-3.972201E-1,7.5749695E-1,2.5752852E0,1.8071541E-1,-3.6010515E-2,-8.5196115E-2,2.5131924E-3,-6.588499E-2,4.2687334E-2,-2.4423834E-2,-3.9288536E-2,2.7067905E-2,-6.097352E-2,-7.6279056E-4,3.8306143E-2,-3.866103E-2,5.360813E-2,7.932133E-2],"split_indices":[1,1,1,20,12,21,19,2,0,13,4,15,11,24,1,0,0,0,0,0,0,0,0,0,0,0,0,0,0],"split_type":[0,0,0,0,0,0,0,0,0,0,0,0,0,0,0,0,0,0,0,0,0,0,0,0,0,0,0,0,0],"sum_hessian":[2.9437915E2,1.2813342E2,1.6624571E2,8.657285E1,4.1560577E1,4.6528168E1,1.1971754E2,8.482337E1,1.7494823E0,3.1592056E1,9.968521E0,4.1791378E1,4.736792E0,6.665083E0,1.1305245E2,3.2325118E0,8.159086E1,1.9971632E0,2.9594894E1,2.9688258E0,6.999695E0,4.492746E0,3.7298634E1,3.237349E0,1.4994428E0,5.4305177E0,1.2345653E0,2.2652859E1,9.03996E1],"tree_param":{"num_deleted":"0","num_feature":"25","num_nodes":"29","size_leaf_vector":"1"}},{"base_weights":[-1.1703566E-3,-1.3741281E0,1.059958E0,-1.5835555E0,-9.1324145E-1,2.3470199E-1,1.3889141E0,-1.6097894E0,-9.862238E-3,-1.1789081E0,-4.335148E-2,7.374011E-2,8.326214E-2,9.158605E-1,1.5134864E0,-2.2978967E-2,-8.141654E-2,-6.2211104E-2,1.2525454E-2,4.1242234E-2,-2.3361767E-2,-5.8226597E-2,1.0502689E-2,6.2065013E-2,3.5125006E-3,1.7049162E-2,7.706729E-2],"categories":[],"categories_nodes":[],"categories_segments":[],"categories_sizes":[],"default_left":[0,0,0,0,0,0,0,0,0,0,0,0,0,0,0,0,0,0,0,0,0,0,0,0,0,0,0],"id":4,"left_children":[1,3,5,7,9,11,13,15,-1,17,19,-1,21,23,25,-1,-1,-1,-1,-1,-1,-1,-1,-1,-1,-1,-1],"loss_changes":[4.2800143E2,1.0915527E1,4.4659225E1,2.835434E0,9.741985E0,8.972555E0,5.583847E0,1.0632477E0,0E0,3.3387985E0,4.415937E0,0E0,7.2406607E0,7.3944683E0,2.4825897E0,0E0,0E0,0E0,0E0,0E0,0E0,0E0,0E0,0E0,0E0,0E0,0E0],"parents":[2147483647,0,0,1,1,2,2,3,3,4,4,5,5,6,6,7,7,9,9,10,10,12,12,13,13,14,14],"right_children":[2,4,6,8,10,12,14,16,-1,18,20,-1,22,24,26,-1,-1,-1,-1,-1,-1,-1,-1,-1,-1,-1,-1],"split_conditions":[-2.549036E-1,-4.356487E-1,-1.051628E-2,2.5055287E0,-1.2566514E-1,-9.7929215E-1,1.8608141E-1,-1.3818963E0,-9.862238E-3,-2.382295E-2,-1.6823463E-1,7.374011E-2,-8.063025E-1,-2.1336852E-1,-3.359371E-1,-2.2978967E-2,-8.141654E-2,-6.2211104E-2,1.2525454E-2,4.1242234E-2,-2.3361767E-2,-5.8226597E-2,1.0502689E-2,6.2065013E-2,3.5125006E-3,1.7049162E-2,7.706729E-2],"split_indices":[1,1,1,20,12,9,1,14,0,15,4,0,6,11,21,0,0,0,0,0,0,0,0,0,0,0,0],"split_type":[0,0,0,0,0,0,0,0,0,0,0,0,0,0,0,0,0,0,0,0,0,0,0,0,0,0,0],"sum_hessian":[2.9177884E2,1.2707102E2,1.6470782E2,8.569516E1,4.1375862E1,4.7430893E1,1.1727693E2,8.394541E1,1.7497435E0,3.1423733E1,9.952129E0,4.2108493E0,4.3220043E1,2.6186764E1,9.109017E1,1.7408246E0,8.220459E1,3.0174538E1,1.249195E0,2.954605E0,6.9975243E0,3.2316642E0,3.9988377E1,1.857146E1,7.6153045E0,2.421403E0,8.866876E1],"tree_param":{"num_deleted":"0","num_feature":"25","num_nodes":"27","size_leaf_vector":"1"}},{"base_weights":[-9.42815E-4,-1.3208045E0,1.0189683E0,-1.5256325E0,-8.7340224E-1,2.2377992E-1,1.3401083E0,-1.5512121E0,-9.547857E-3,-1.1293151E0,-3.959857E-2,7.125494E-2,7.805975E-2,1.048803E0,1.546756E0,-3.216323E-2,-7.896151E-2,4.50877E-3,-6.0632803E-2,3.98688E-2,-2.2351258E-2,-5.5872113E-2,9.997016E-3,5.722582E-2,-1.1720202E-2,7.8035034E-2,2.6638338E-2],"categories":[],"categories_nodes":[],"categories_segments":[],"categories_sizes":[],"default_left":[0,0,0,0,0,0,0,0,0,0,0,0,0,0,0,0,0,0,0,0,0,0,0,0,0,0,0],"id":5,"left_children":[1,3,5,7,9,11,13,15,-1,17,19,-1,21,23,25,-1,-1,-1,-1,-1,-1,-1,-1,-1,-1,-1,-1],"loss_changes":[3.913578E2,1.0280884E1,4.157982E1,2.625885E0,8.9465065E0,8.357759E0,5.3979797E0,1.1169739E0,0E0,3.3824577E0,4.084295E0,0E0,6.664192E0,6.5938416E0,1.03393555E-1,0E0,0E0,0E0,0E0,0E0,0E0,0E0,0E0,0E0,0E0,0E0,0E0],"parents":[2147483647,0,0,1,1,2,2,3,3,4,4,5,5,6,6,7,7,9,9,10,10,12,12,13,13,14,14],"right_children":[2,4,6,8,10,12,14,16,-1,18,20,-1,22,24,26,-1,-1,-1,-1,-1,-1,-1,-1,-1,-1,-1,-1],"split_conditions":[-2.549036E-1,-4.356487E-1,-1.051628E-2,2.5055287E0,-1.2566514E-1,-9.7929215E-1,4.3190753E-1,-1.0282335E0,-9.547857E-3,-1.0225672E0,-1.6823463E-1,7.125494E-2,-8.063025E-1,7.451667E-1,1.2427069E0,-3.216323E-2,-7.896151E-2,4.50877E-3,-6.0632803E-2,3.98688E-2,-2.2351258E-2,-5.5872113E-2,9.997016E-3,5.722582E-2,-1.1720202E-2,7.8035034E-2,2.6638338E-2],"split_indices":[1,1,1,20,12,9,1,2,0,13,4,0,6,11,14,0,0,0,0,0,0,0,0,0,0,0,0],"split_type":[0,0,0,0,0,0,0,0,0,0,0,0,0,0,0,0,0,0,0,0,0,0,0,0,0,0,0],"sum_hessian":[2.8872577E2,1.2572748E2,1.6299829E2,8.459056E1,4.1136917E1,4.7378704E1,1.1561959E2,8.284065E1,1.7499099E0,3.1204996E1,9.931921E0,4.1755686E0,4.3203136E1,5.050271E1,6.511688E1,3.197035E0,7.9643616E1,1.9909073E0,2.9214088E1,2.9384248E0,6.9934964E0,3.2413216E0,3.9961815E1,4.7097805E1,3.4049046E0,6.370167E1,1.415211E0],"tree_param":{"num_deleted":"0","num_feature":"25","num_nodes":"27","size_leaf_vector":"1"}},{"base_weights":[-8.180549E-4,-1.2722471E0,9.807432E-1,-1.4735439E0,-8.36417E-1,2.1345021E-1,1.2950854E0,-1.4986228E0,-9.243787E-3,-1.0835208E0,-3.6067255E-2,6.898581E-2,7.3163465E-2,8.36177E-1,1.4183568E0,-3.1039998E-2,-7.6300636E-2,4.357816E-3,-5.821302E-2,3.856093E-2,-2.1388957E-2,-5.368306E-2,9.515873E-3,5.761786E-2,1.5343482E-3,1.4774814E-2,7.229547E-2],"categories":[],"categories_nodes":[],"categories_segments":[],"categories_sizes":[],"default_left":[0,0,0,0,0,0,0,0,0,0,0,0,0,0,0,0,0,0,0,0,0,0,0,0,0,0,0],"id":6,"left_children":[1,3,5,7,9,11,13,15,-1,17,19,-1,21,23,25,-1,-1,-1,-1,-1,-1,-1,-1,-1,-1,-1,-1],"loss_changes":[3.585113E2,9.747543E0,3.882489E1,2.447403E0,8.238571E0,7.80334E0,5.308548E0,1.0374603E0,0E0,3.1210632E0,3.779409E0,0E0,6.140143E0,6.776123E0,2.328064E0,0E0,0E0,0E0,0E0,0E0,0E0,0E0,0E0,0E0,0E0,0E0,0E0],"parents":[2147483647,0,0,1,1,2,2,3,3,4,4,5,5,6,6,7,7,9,9,10,10,12,12,13,13,14,14],"right_children":[2,4,6,8,10,12,14,16,-1,18,20,-1,22,24,26,-1,-1,-1,-1,-1,-1,-1,-1,-1,-1,-1,-1],"split_conditions":[-2.549036E-1,-4.356487E-1,-1.051628E-2,2.5055287E0,-1.2566514E-1,-9.7929215E-1,1.8608141E-1,-1.0282335E0,-9.243787E-3,-1.0225672E0,-1.6823463E-1,6.898581E-2,-8.063025E-1,-2.1336852E-1,-3.359371E-1,-3.1039998E-2,-7.6300636E-2,4.357816E-3,-5.821302E-2,3.856093E-2,-2.1388957E-2,-5.368306E-2,9.515873E-3,5.761786E-2,1.5343482E-3,1.4774814E-2,7.229547E-2],"split_indices":[1,1,1,20,12,9,1,2,0,13,4,0,6,11,21,0,0,0,0,0,0,0,0,0,0,0,0],"split_type":[0,0,0,0,0,0,0,0,0,0,0,0,0,0,0,0,0,0,0,0,0,0,0,0,0,0,0],"sum_hessian":[2.852722E2,1.2415563E2,1.6111655E2,8.330059E1,4.0855045E1,4.7311256E1,1.1380528E2,8.15506E1,1.7499899E0,3.0946629E1,9.908417E0,4.131263E0,4.3179993E1,2.5745266E1,8.806002E1,3.183616E0,7.836698E1,1.9915026E0,2.8955126E1,2.9205542E0,6.9878626E0,3.2454674E0,3.993453E1,1.8178862E1,7.5664053E0,2.3898687E0,8.567015E1],"tree_param":{"num_deleted":"0","num_feature":"25","num_nodes":"27","size_leaf_vector":"1"}},{"base_weights":[-6.9476664E-4,-1.2276728E0,9.4517905E-1,-1.2600372E0,4.218304E-2,2.0367001E-1,1.2537692E0,-1.419968E0,-8.259775E-1,3.4418598E-1,-8.9862925E-1,9.678504E-1,1.4603263E0,-7.238863E-2,-1.4900531E-4,-5.058415E-2,-8.143055E-3,-3.2206953E-2,2.595199E-2,-6.564944E-2,-8.894148E-3,5.305287E-2,-1.2394523E-2,7.371251E-2,2.4136169E-2],"categories":[],"categories_nodes":[],"categories_segments":[],"categories_sizes":[],"default_left":[0,0,0,0,0,0,0,0,0,0,0,0,0,0,0,0,0,0,0,0,0,0,0,0,0],"id":7,"left_children":[1,3,5,7,-1,9,11,13,15,17,19,21,23,-1,-1,-1,-1,-1,-1,-1,-1,-1,-1,-1,-1],"loss_changes":[3.289632E2,9.334808E0,3.637018E1,7.2888794E0,0E0,7.779774E0,5.250183E0,3.4502716E0,4.171135E0,7.851783E0,1.4777026E0,5.9615784E0,1.5327454E-1,0E0,0E0,0E0,0E0,0E0,0E0,0E0,0E0,0E0,0E0,0E0,0E0],"parents":[2147483647,0,0,1,1,2,2,3,3,5,5,6,6,7,7,8,8,9,9,10,10,11,11,12,12],"right_children":[2,4,6,8,-1,10,12,14,16,18,20,22,24,-1,-1,-1,-1,-1,-1,-1,-1,-1,-1,-1,-1],"split_conditions":[-2.549036E-1,2.7510836E0,-1.051628E-2,-4.131549E-1,4.218304E-2,3.6280498E-1,4.3190753E-1,2.6049154E0,-1.2566514E-1,-8.514124E-1,4.158077E-1,7.451667E-1,1.2427069E0,-7.238863E-2,-1.4900531E-4,-5.058415E-2,-8.143055E-3,-3.2206953E-2,2.595199E-2,-6.564944E-2,-8.894148E-3,5.305287E-2,-1.2394523E-2,7.371251E-2,2.4136169E-2],"split_indices":[1,9,1,1,0,21,1,13,12,12,19,11,14,0,0,0,0,0,0,0,0,0,0,0,0],"split_type":[0,0,0,0,0,0,0,0,0,0,0,0,0,0,0,0,0,0,0,0,0,0,0,0,0],"sum_hessian":[2.8145074E2,1.2238989E2,1.5906087E2,1.2089263E2,1.497261E0,4.7230656E1,1.118302E2,8.668272E1,3.420991E1,4.250063E1,4.7300262E0,4.9289173E1,6.254103E1,8.499323E1,1.6894839E0,2.6314812E1,7.895101E0,5.9854193E0,3.6515213E1,2.4816244E0,2.248402E0,4.5897583E1,3.3915873E0,6.116188E1,1.3791498E0],"tree_param":{"num_deleted":"0","num_feature":"25","num_nodes":"25","size_leaf_vector":"1"}},{"base_weights":[-7.600641E-4,-1.1854137E0,9.111206E-1,-1.383303E0,-7.663347E-1,9.764733E-2,1.1793786E0,-1.407719E0,-8.676211E-3,-1.0957998E0,-1.9867831E-1,2.5974566E-1,-1.1056684E0,-4.6231322E-2,1.2138608E0,-1.6248537E-2,-7.135291E-2,-5.9081864E-2,1.6959952E-2,2.0387666E-2,-2.727685E-2,-2.8269446E-2,2.7574608E-2,-8.597926E-3,-6.85546E-2,4.28227E-2,6.816066E-2],"categories":[],"categories_nodes":[],"categories_segments":[],"categories_sizes":[],"default_left":[0,0,0,0,0,0,0,0,0,0,0,0,0,0,0,0,0,0,0,0,0,0,0,0,0,0,0],"id":8,"left_children":[1,3,5,7,9,11,13,15,-1,17,19,21,23,-1,25,-1,-1,-1,-1,-1,-1,-1,-1,-1,-1,-1,-1],"loss_changes":[3.018358E2,9.018402E0,3.4337906E1,2.157364E0,7.491665E0,8.136868E0,9.729645E0,1.2021332E0,0E0,3.5863552E0,3.6636965E0,9.044411E0,9.9539423E-1,0E0,5.0863037E0,0E0,0E0,0E0,0E0,0E0,0E0,0E0,0E0,0E0,0E0,0E0,0E0],"parents":[2147483647,0,0,1,1,2,2,3,3,4,4,5,5,6,6,7,7,9,9,10,10,11,11,12,12,14,14],"right_children":[2,4,6,8,10,12,14,16,-1,18,20,22,24,-1,26,-1,-1,-1,-1,-1,-1,-1,-1,-1,-1,-1,-1],"split_conditions":[-2.549036E-1,-4.356487E-1,-5.8972873E-2,2.5055287E0,-3.9965785E-1,3.6280498E-1,-6.227088E-1,-1.3818963E0,-8.676211E-3,-2.382295E-2,-1.6850068E-1,-7.5416243E-1,5.7099443E-2,-4.6231322E-2,2.3680346E-1,-1.6248537E-2,-7.135291E-2,-5.9081864E-2,1.6959952E-2,2.0387666E-2,-2.727685E-2,-2.8269446E-2,2.7574608E-2,-8.597926E-3,-6.85546E-2,4.28227E-2,6.816066E-2],"split_indices":[1,1,1,20,12,21,21,14,0,15,22,12,0,0,1,0,0,0,0,0,0,0,0,0,0,0,0],"split_type":[0,0,0,0,0,0,0,0,0,0,0,0,0,0,0,0,0,0,0,0,0,0,0,0,0,0,0],"sum_hessian":[2.7740976E2,1.2052799E2,1.5688177E2,8.0306435E1,4.0221558E1,3.92433E1,1.1763848E2,7.855736E1,1.749081E0,2.4861607E1,1.5359952E1,3.5275494E1,3.9678094E0,1.4806174E0,1.1615786E2,1.690913E0,7.686644E1,2.3624987E1,1.2366192E0,5.5249047E0,9.835047E0,8.969495E0,2.6305998E1,1.2430075E0,2.724802E0,3.62189E1,7.9938965E1],"tree_param":{"num_deleted":"0","num_feature":"25","num_nodes":"27","size_leaf_vector":"1"}},{"base_weights":[-1.3011358E-3,-1.1468407E0,8.7871534E-1,-1.3436518E0,-7.354411E-1,3.8042715E-1,1.3029279E0,-1.3678936E0,-8.400617E-3,-1.0555639E0,-1.8952012E-1,7.6966834E-1,6.437272E-2,-2.504719E-3,1.3225739E0,-2.5388995E-2,-6.983075E-2,7.990313E-3,-5.819819E-2,1.9521853E-2,-2.6111418E-2,1.7695038E-2,5.917002E-2,-4.530521E-2,9.136493E-3,1.6227925E-2,6.716069E-2],"categories":[],"categories_nodes":[],"categories_segments":[],"categories_sizes":[],"default_left":[0,0,0,0,0,0,0,0,0,0,0,0,0,0,0,0,0,0,0,0,0,0,0,0,0,0,0],"id":9,"left_children":[1,3,5,7,9,11,13,15,-1,17,19,21,23,-1,25,-1,-1,-1,-1,-1,-1,-1,-1,-1,-1,-1,-1],"loss_changes":[2.7733163E2,8.689194E0,3.239183E1,2.0397491E0,6.945072E0,8.925859E0,2.289154E0,1.2149353E0,0E0,3.552576E0,3.3551602E0,5.1893444E0,4.9158E0,0E0,1.2627716E0,0E0,0E0,0E0,0E0,0E0,0E0,0E0,0E0,0E0,0E0,0E0,0E0],"parents":[2147483647,0,0,1,1,2,2,3,3,4,4,5,5,6,6,7,7,9,9,10,10,11,11,12,12,14,14],"right_children":[2,4,6,8,10,12,14,16,-1,18,20,22,24,-1,26,-1,-1,-1,-1,-1,-1,-1,-1,-1,-1,-1,-1],"split_conditions":[-2.549036E-1,-4.356487E-1,1.8608141E-1,2.5055287E0,-3.9965785E-1,-4.1911936E-1,-9.353691E-2,-1.0282335E0,-8.400617E-3,-1.0225672E0,-1.6850068E-1,-9.606212E-2,-8.232512E-1,-2.504719E-3,-8.3304787E-1,-2.5388995E-2,-6.983075E-2,7.990313E-3,-5.819819E-2,1.9521853E-2,-2.6111418E-2,1.7695038E-2,5.917002E-2,-4.530521E-2,9.136493E-3,1.6227925E-2,6.716069E-2],"split_indices":[1,1,1,20,12,11,15,2,0,13,22,10,12,0,13,0,0,0,0,0,0,0,0,0,0,0,0],"split_type":[0,0,0,0,0,0,0,0,0,0,0,0,0,0,0,0,0,0,0,0,0,0,0,0,0,0,0],"sum_hessian":[2.7310535E2,1.1852074E2,1.5458463E2,7.86358E1,3.9884933E1,7.195807E1,8.262655E1,7.6886856E1,1.7489487E0,2.4553467E1,1.5331467E1,3.1602425E1,4.0355644E1,1.1603898E0,8.146616E1,3.0880933E0,7.379876E1,1.9717824E0,2.2581684E1,5.525767E0,9.805699E0,1.6687853E1,1.4914572E1,3.6632135E0,3.6692432E1,1.9895386E0,7.947662E1],"tree_param":{"num_deleted":"0","num_feature":"25","num_nodes":"27","size_leaf_vector":"1"}},{"base_weights":[-1.3882176E-3,-1.1110308E0,8.4841096E-1,-1.1435393E0,4.216664E-2,3.635467E-1,1.2694923E0,-1.3000582E0,-7.344313E-1,6.417155E-2,2.3215102E-1,1.8660092E-1,1.2983491E0,-6.6406496E-2,2.1545768E-3,-4.5318745E-2,-6.838113E-3,-5.1065236E-2,1.7065128E-2,4.000164E-2,-2.4980279E-2,1.574767E-2,6.597104E-2],"categories":[],"categories_nodes":[],"categories_segments":[],"categories_sizes":[],"default_left":[0,0,0,0,0,0,0,0,0,0,0,0,0,0,0,0,0,0,0,0,0,0,0],"id":10,"left_children":[1,3,5,7,-1,9,11,13,15,-1,17,19,21,-1,-1,-1,-1,-1,-1,-1,-1,-1,-1],"loss_changes":[2.55287E2,8.42395E0,3.084024E1,6.4675903E0,0E0,8.484549E0,2.3092651E0,3.1694183E0,3.408512E0,0E0,9.214363E0,1.7834373E0,1.2290497E0,0E0,0E0,0E0,0E0,0E0,0E0,0E0,0E0,0E0,0E0],"parents":[2147483647,0,0,1,1,2,2,3,3,5,5,6,6,7,7,8,8,10,10,11,11,12,12],"right_children":[2,4,6,8,-1,10,12,14,16,-1,18,20,22,-1,-1,-1,-1,-1,-1,-1,-1,-1,-1],"split_conditions":[-2.549036E-1,2.7510836E0,1.8608141E-1,-4.131549E-1,4.216664E-2,-9.7929215E-1,-3.359371E-1,2.6049154E0,-1.2566514E-1,6.417155E-2,-8.0417776E-1,-3.2535362E-1,-8.3304787E-1,-6.6406496E-2,2.1545768E-3,-4.5318745E-2,-6.838113E-3,-5.1065236E-2,1.7065128E-2,4.000164E-2,-2.4980279E-2,1.574767E-2,6.597104E-2],"split_indices":[1,9,1,1,0,9,21,13,12,0,5,0,13,0,0,0,0,0,0,0,0,0,0],"split_type":[0,0,0,0,0,0,0,0,0,0,0,0,0,0,0,0,0,0,0,0,0,0,0],"sum_hessian":[2.6872592E2,1.16411644E2,1.5231429E2,1.1491505E2,1.4965947E0,7.166141E1,8.0652885E1,8.154089E1,3.3374157E1,7.860859E0,6.3800545E1,2.287246E0,7.836564E1,7.988254E1,1.6583554E0,2.5516727E1,7.85743E0,4.4413185E0,5.9359226E1,1.1200784E0,1.1671677E0,1.9784836E0,7.638715E1],"tree_param":{"num_deleted":"0","num_feature":"25","num_nodes":"23","size_leaf_vector":"1"}},{"base_weights":[-1.1267276E-3,-1.0764372E0,8.19592E-1,-1.2735399E0,-6.760655E-1,6.5910816E-2,1.081321E0,-1.297574E0,-7.95249E-3,-8.180639E-1,3.894707E-1,2.2301228E-1,-1.0887426E0,-4.5288432E-2,1.1162078E0,-2.23262E-2,-6.6367656E-2,-4.449896E-2,2.5739303E-2,6.1774015E-2,-7.855716E-3,-3.977952E-2,2.1610564E-2,-8.755501E-3,-6.737378E-2,4.3442525E-2,6.642304E-2],"categories":[],"categories_nodes":[],"categories_segments":[],"categories_sizes":[],"default_left":[0,0,0,0,0,0,0,0,0,0,0,0,0,0,0,0,0,0,0,0,0,0,0,0,0,0,0],"id":11,"left_children":[1,3,5,7,9,11,13,15,-1,17,19,21,23,-1,25,-1,-1,-1,-1,-1,-1,-1,-1,-1,-1,-1,-1],"loss_changes":[2.349906E2,8.234497E0,2.971753E1,1.8321228E0,6.3941307E0,7.496803E0,8.776825E0,1.2917786E0,0E0,3.8853416E0,2.6908593E0,8.02155E0,9.3636274E-1,0E0,4.649292E0,0E0,0E0,0E0,0E0,0E0,0E0,0E0,0E0,0E0,0E0,0E0,0E0],"parents":[2147483647,0,0,1,1,2,2,3,3,4,4,5,5,6,6,7,7,9,9,10,10,11,11,12,12,14,14],"right_children":[2,4,6,8,10,12,14,16,-1,18,20,22,24,-1,26,-1,-1,-1,-1,-1,-1,-1,-1,-1,-1,-1,-1],"split_conditions":[-2.549036E-1,-4.356487E-1,-5.8972873E-2,2.5055287E0,5.071686E-1,3.6280498E-1,-6.227088E-1,-1.0282335E0,-7.95249E-3,-2.382295E-2,-4.040353E-1,-8.514124E-1,5.3867705E-2,-4.5288432E-2,4.3190753E-1,-2.23262E-2,-6.6367656E-2,-4.449896E-2,2.5739303E-2,6.1774015E-2,-7.855716E-3,-3.977952E-2,2.1610564E-2,-8.755501E-3,-6.737378E-2,4.3442525E-2,6.642304E-2],"split_indices":[1,1,1,20,4,21,21,2,0,15,1,12,2,0,1,0,0,0,0,0,0,0,0,0,0,0,0],"split_type":[0,0,0,0,0,0,0,0,0,0,0,0,0,0,0,0,0,0,0,0,0,0,0,0,0,0,0],"sum_hessian":[2.6427036E2,1.142577E2,1.5001268E2,7.510344E1,3.915426E1,3.898947E1,1.110232E2,7.33572E1,1.7462367E0,3.4754906E1,4.3993516E0,3.5030148E1,3.9593234E0,1.4848638E0,1.0953834E2,3.0208054E0,7.0336395E1,3.329093E1,1.4639751E0,1.2320342E0,3.1673174E0,5.491017E0,2.953913E1,1.2438533E0,2.71547E0,5.2938213E1,5.6600124E1],"tree_param":{"num_deleted":"0","num_feature":"25","num_nodes":"27","size_leaf_vector":"1"}},{"base_weights":[-1.4352376E-3,-1.0434996E0,7.9163206E-1,-1.2421191E0,-6.46938E-1,3.2833943E-1,1.2105547E0,-1.2661964E0,-7.7004507E-3,-9.562982E-1,-1.3686311E-1,1.3055472E0,2.0698105E-1,1.5464605E-1,1.2399504E0,-1.0614771E-2,-6.4361475E-2,1.0860988E-2,-5.333702E-2,2.1747965E-2,-2.35619E-2,6.997689E-2,2.0988822E-2,-4.1663412E-2,1.6944215E-2,3.8230658E-2,-2.5274917E-2,1.3925927E-2,6.3073896E-2],"categories":[],"categories_nodes":[],"categories_segments":[],"categories_sizes":[],"default_left":[0,0,0,0,0,0,0,0,0,0,0,0,0,0,0,0,0,0,0,0,0,0,0,0,0,0,0,0,0],"id":12,"left_children":[1,3,5,7,9,11,13,15,-1,17,19,21,23,25,27,-1,-1,-1,-1,-1,-1,-1,-1,-1,-1,-1,-1,-1,-1],"loss_changes":[2.1623787E2,8.102791E0,2.8439308E1,1.7503433E0,6.1528473E0,8.25958E0,2.218544E0,1.333992E0,0E0,3.422718E0,3.3026161E0,5.8322906E-2,9.224261E0,1.6934652E0,1.2093887E0,0E0,0E0,0E0,0E0,0E0,0E0,0E0,0E0,0E0,0E0,0E0,0E0,0E0,0E0],"parents":[2147483647,0,0,1,1,2,2,3,3,4,4,5,5,6,6,7,7,9,9,10,10,11,11,12,12,13,13,14,14],"right_children":[2,4,6,8,10,12,14,16,-1,18,20,22,24,26,28,-1,-1,-1,-1,-1,-1,-1,-1,-1,-1,-1,-1,-1,-1],"split_conditions":[-2.549036E-1,-4.356487E-1,1.8608141E-1,2.5055287E0,-3.9965785E-1,-7.215506E-1,-3.359371E-1,-1.3818963E0,-7.7004507E-3,-1.0225672E0,-1.6850068E-1,-6.538074E-2,-8.232512E-1,-3.2535362E-1,-8.3304787E-1,-1.0614771E-2,-6.4361475E-2,1.0860988E-2,-5.333702E-2,2.1747965E-2,-2.35619E-2,6.997689E-2,2.0988822E-2,-4.1663412E-2,1.6944215E-2,3.8230658E-2,-2.5274917E-2,1.3925927E-2,6.3073896E-2],"split_indices":[1,1,1,20,12,11,21,14,0,13,22,12,12,0,13,0,0,0,0,0,0,0,0,0,0,0,0,0,0],"split_type":[0,0,0,0,0,0,0,0,0,0,0,0,0,0,0,0,0,0,0,0,0,0,0,0,0,0,0,0,0],"sum_hessian":[2.5965433E2,1.12075294E2,1.4757904E2,7.325367E1,3.882163E1,7.092539E1,7.665364E1,7.1507706E1,1.7459598E0,2.3620806E1,1.5200824E1,6.757174E0,6.416822E1,2.24575E0,7.440789E1,1.6162436E0,6.9891464E1,1.9486248E0,2.167218E1,5.4979076E0,9.702916E0,5.584564E0,1.1726097E0,6.6225443E0,5.7545677E1,1.084984E0,1.1607661E0,1.9348376E0,7.247305E1],"tree_param":{"num_deleted":"0","num_feature":"25","num_nodes":"29","size_leaf_vector":"1"}},{"base_weights":[-1.2758371E-3,-1.0134374E0,7.655343E-1,-1.2125996E0,-6.221289E-1,3.1406477E-1,1.183387E0,-1.2367721E0,-7.4565336E-3,-9.3872666E-1,-1.3064182E-1,6.887894E-1,1.5668722E-2,1.5142415E-1,1.2127932E0,-1.9763133E-2,-6.33825E-2,3.1655952E-3,-5.390349E-2,-4.0684883E-2,1.3756431E-2,1.5180694E-2,5.4291762E-2,3.4917537E-2,-6.6221426E-3,3.7517063E-2,-2.451937E-2,1.3514692E-2,6.172022E-2],"categories":[],"categories_nodes":[],"categories_segments":[],"categories_sizes":[],"default_left":[0,0,0,0,0,0,0,0,0,0,0,0,0,0,0,0,0,0,0,0,0,0,0,0,0,0,0,0,0],"id":13,"left_children":[1,3,5,7,9,11,13,15,-1,17,19,21,23,25,27,-1,-1,-1,-1,-1,-1,-1,-1,-1,-1,-1,-1,-1,-1],"loss_changes":[1.9951265E2,7.8808823E0,2.7219383E1,1.676094E0,6.012289E0,8.002174E0,2.1103668E0,1.334198E0,0E0,3.3939056E0,4.827157E0,4.5250998E0,4.229762E0,1.6122723E0,1.1605377E0,0E0,0E0,0E0,0E0,0E0,0E0,0E0,0E0,0E0,0E0,0E0,0E0,0E0,0E0],"parents":[2147483647,0,0,1,1,2,2,3,3,4,4,5,5,6,6,7,7,9,9,10,10,11,11,12,12,13,13,14,14],"right_children":[2,4,6,8,10,12,14,16,-1,18,20,22,24,26,28,-1,-1,-1,-1,-1,-1,-1,-1,-1,-1,-1,-1,-1,-1],"split_conditions":[-2.549036E-1,-4.356487E-1,1.8608141E-1,2.5055287E0,-2.2213216E-1,-4.1911936E-1,-3.359371E-1,-1.0282335E0,-7.4565336E-3,-9.960401E-1,-4.0869465E-1,-9.606212E-2,-3.2475865E-1,-3.2535362E-1,-8.3304787E-1,-1.9763133E-2,-6.33825E-2,3.1655952E-3,-5.390349E-2,-4.0684883E-2,1.3756431E-2,1.5180694E-2,5.4291762E-2,3.4917537E-2,-6.6221426E-3,3.7517063E-2,-2.451937E-2,1.3514692E-2,6.172022E-2],"split_indices":[1,1,1,20,8,11,21,2,0,13,17,10,8,0,13,0,0,0,0,0,0,0,0,0,0,0,0,0,0],"split_type":[0,0,0,0,0,0,0,0,0,0,0,0,0,0,0,0,0,0,0,0,0,0,0,0,0,0,0,0,0],"sum_hessian":[2.5505937E2,1.0980247E2,1.4525691E2,7.137585E1,3.8426613E1,7.066185E1,7.4595055E1,6.963021E1,1.7456396E0,2.2818079E1,1.5608536E1,3.0744596E1,3.991725E1,2.2370977E0,7.2357956E1,2.9530215E0,6.667719E1,2.8523083E0,1.996577E1,5.442149E0,1.0166387E1,1.6501307E1,1.4243291E1,6.454031E0,3.3463223E1,1.0697467E0,1.1673509E0,1.9247152E0,7.043324E1],"tree_param":{"num_deleted":"0","num_feature":"25","num_nodes":"29","size_leaf_vector":"1"}},{"base_weights":[-1.1540726E-3,-9.847351E-1,7.409889E-1,-1.1850363E0,-5.983666E-1,3.885075E-2,9.9915546E-1,-1.2093574E0,-7.2204657E-3,-1.0718422E0,-2.702309E-1,1.9005987E-1,-1.0635233E0,-4.3854967E-2,1.0345749E0,-8.852526E-3,-6.1555672E-2,1.0381899E-2,-6.346165E-2,-1.9029243E-2,4.307511E-2,-2.6837219E-2,2.2622472E-2,-9.030812E-3,-6.5575756E-2,3.956418E-2,6.267418E-2],"categories":[],"categories_nodes":[],"categories_segments":[],"categories_sizes":[],"default_left":[0,0,0,0,0,0,0,0,0,0,0,0,0,0,0,0,0,0,0,0,0,0,0,0,0,0,0],"id":14,"left_children":[1,3,5,7,9,11,13,15,-1,17,19,21,23,-1,25,-1,-1,-1,-1,-1,-1,-1,-1,-1,-1,-1,-1],"loss_changes":[1.8428851E2,7.6932526E0,2.6044601E1,1.6092224E0,5.7832947E0,6.8237867E0,7.896515E0,1.325798E0,0E0,4.2194843E0,3.3783262E0,7.0665607E0,8.454633E-1,0E0,4.529953E0,0E0,0E0,0E0,0E0,0E0,0E0,0E0,0E0,0E0,0E0,0E0,0E0],"parents":[2147483647,0,0,1,1,2,2,3,3,4,4,5,5,6,6,7,7,9,9,10,10,11,11,12,12,14,14],"right_children":[2,4,6,8,10,12,14,16,-1,18,20,22,24,-1,26,-1,-1,-1,-1,-1,-1,-1,-1,-1,-1,-1,-1],"split_conditions":[-2.549036E-1,-4.356487E-1,-5.8972873E-2,2.5055287E0,-3.4647226E-1,3.6280498E-1,-6.227088E-1,-1.3818963E0,-7.2204657E-3,-1.0225672E0,1.3123381E-1,-7.5416243E-1,5.3867705E-2,-4.3854967E-2,4.3190753E-1,-8.852526E-3,-6.1555672E-2,1.0381899E-2,-6.346165E-2,-1.9029243E-2,4.307511E-2,-2.6837219E-2,2.2622472E-2,-9.030812E-3,-6.5575756E-2,3.956418E-2,6.267418E-2],"split_indices":[1,1,1,20,24,21,21,14,0,13,15,12,2,0,1,0,0,0,0,0,0,0,0,0,0,0,0],"split_type":[0,0,0,0,0,0,0,0,0,0,0,0,0,0,0,0,0,0,0,0,0,0,0,0,0,0,0],"sum_hessian":[2.5046501E2,1.07571236E2,1.4289377E2,6.948283E1,3.8088406E1,3.8724594E1,1.0416918E2,6.773755E1,1.7452803E0,1.4663542E1,2.3424866E1,3.478134E1,3.9432545E0,1.4897546E0,1.0267943E2,1.5867238E0,6.6150826E1,1.9529126E0,1.2710629E1,2.1948416E1,1.4764494E0,8.9486065E0,2.5832733E1,1.2437032E0,2.699551E0,5.0816994E1,5.186243E1],"tree_param":{"num_deleted":"0","num_feature":"25","num_nodes":"27","size_leaf_vector":"1"}},{"base_weights":[-1.6409043E-3,-9.5700186E-1,7.1651226E-1,-1.1589099E0,-5.747267E-1,2.8481764E-1,1.1342336E0,-1.1834208E0,-6.9919745E-3,-8.759723E-1,-9.683679E-2,1.2414994E0,1.6847941E-1,1.2300964E-1,1.1644584E0,-1.738814E-2,-6.0783E-2,-4.8248213E-2,2.1139551E-2,2.3286099E-2,-2.1555746E-2,6.683274E-2,1.899772E-2,-3.9895035E-2,1.4645829E-2,3.595945E-2,-2.4748761E-2,1.187553E-2,5.9340555E-2],"categories":[],"categories_nodes":[],"categories_segments":[],"categories_sizes":[],"default_left":[0,0,0,0,0,0,0,0,0,0,0,0,0,0,0,0,0,0,0,0,0,0,0,0,0,0,0,0,0],"id":15,"left_children":[1,3,5,7,9,11,13,15,-1,17,19,21,23,25,27,-1,-1,-1,-1,-1,-1,-1,-1,-1,-1,-1,-1,-1,-1],"loss_changes":[1.6997665E2,7.539711E0,2.518106E1,1.5476608E0,5.4906063E0,7.680557E0,2.0434418E0,1.3779678E0,0E0,3.1391373E0,3.2280793E0,1.0934353E-1,7.973132E0,1.5329133E0,1.1550217E0,0E0,0E0,0E0,0E0,0E0,0E0,0E0,0E0,0E0,0E0,0E0,0E0,0E0,0E0],"parents":[2147483647,0,0,1,1,2,2,3,3,4,4,5,5,6,6,7,7,9,9,10,10,11,11,12,12,13,13,14,14],"right_children":[2,4,6,8,10,12,14,16,-1,18,20,22,24,26,28,-1,-1,-1,-1,-1,-1,-1,-1,-1,-1,-1,-1,-1,-1],"split_conditions":[-2.549036E-1,-4.356487E-1,1.8608141E-1,2.5055287E0,-3.9965785E-1,-7.215506E-1,-3.359371E-1,-1.0282335E0,-6.9919745E-3,-2.382295E-2,-1.6850068E-1,-6.538074E-2,-8.232512E-1,-3.2535362E-1,-8.3304787E-1,-1.738814E-2,-6.0783E-2,-4.8248213E-2,2.1139551E-2,2.3286099E-2,-2.1555746E-2,6.683274E-2,1.899772E-2,-3.9895035E-2,1.4645829E-2,3.595945E-2,-2.4748761E-2,1.187553E-2,5.9340555E-2],"split_indices":[1,1,1,20,12,11,21,2,0,15,22,12,12,0,13,0,0,0,0,0,0,0,0,0,0,0,0,0,0],"split_type":[0,0,0,0,0,0,0,0,0,0,0,0,0,0,0,0,0,0,0,0,0,0,0,0,0,0,0,0,0],"sum_hessian":[2.4574547E2,1.05313736E2,1.4043173E2,6.75853E1,3.772844E1,6.988786E1,7.054386E1,6.584041E1,1.7448868E0,2.2630157E1,1.5098284E1,6.5287395E0,6.3359123E1,2.1944559E0,6.83494E1,2.8835702E0,6.295684E1,2.1419495E1,1.2106615E0,5.481021E0,9.617262E0,5.382764E0,1.1459757E0,6.610424E0,5.67487E1,1.0335804E0,1.1608754E0,1.8831311E0,6.646628E1],"tree_param":{"num_deleted":"0","num_feature":"25","num_nodes":"29","size_leaf_vector":"1"}},{"base_weights":[-1.4598186E-3,-7.10642E-1,9.0958273E-1,-1.0295465E0,-8.3577394E-2,-4.4289447E-2,9.514779E-1,-1.0667142E0,1.6756032E-2,8.953549E-1,-2.3582958E-1,7.031884E-1,1.2110401E0,-6.261462E-2,-4.5266867E-2,-2.587519E-2,6.749641E-2,1.422857E-2,-2.4574097E-2,4.5180477E-2,8.345877E-3,6.145022E-2,1.1210175E-2],"categories":[],"categories_nodes":[],"categories_segments":[],"categories_sizes":[],"default_left":[0,0,0,0,0,0,0,0,0,0,0,0,0,0,0,0,0,0,0,0,0,0,0],"id":16,"left_children":[1,3,5,7,9,-1,11,13,-1,15,17,19,21,-1,-1,-1,-1,-1,-1,-1,-1,-1,-1],"loss_changes":[1.5708902E2,2.7252907E1,8.847656E0,4.9496E0,7.2426085E0,0E0,5.8816757E0,1.512886E0,0E0,4.910627E0,5.676873E0,5.844757E0,6.0543823E-1,0E0,0E0,0E0,0E0,0E0,0E0,0E0,0E0,0E0,0E0],"parents":[2147483647,0,0,1,1,2,2,3,3,4,4,6,6,7,7,9,9,10,10,11,11,12,12],"right_children":[2,4,6,8,10,-1,12,14,-1,16,18,20,22,-1,-1,-1,-1,-1,-1,-1,-1,-1,-1],"split_conditions":[-9.328078E-2,-3.1973413E-1,-1.1837568E0,2.592879E0,-7.215506E-1,-4.4289447E-2,4.3190753E-1,-6.987547E-1,1.6756032E-2,-3.5548672E-1,-4.2716926E-1,-2.3096617E-2,1.2427069E0,-6.261462E-2,-4.5266867E-2,-2.587519E-2,6.749641E-2,1.422857E-2,-2.4574097E-2,4.5180477E-2,8.345877E-3,6.145022E-2,1.1210175E-2],"split_indices":[1,1,14,24,11,0,1,1,0,19,23,20,14,0,0,0,0,0,0,0,0,0,0],"split_type":[0,0,0,0,0,0,0,0,0,0,0,0,0,0,0,0,0,0,0,0,0,0,0],"sum_hessian":[2.411356E2,1.3571277E2,1.0542282E2,8.95359E1,4.6176876E1,1.9446354E0,1.0347819E2,8.737453E1,2.1613722E0,5.558268E0,4.0618607E1,5.4783276E1,4.8694912E1,3.749565E1,4.9878876E1,1.3193035E0,4.2389646E0,1.3343572E1,2.7275036E1,3.9380554E1,1.5402724E1,4.7583317E1,1.1115959E0],"tree_param":{"num_deleted":"0","num_feature":"25","num_nodes":"23","size_leaf_vector":"1"}},{"base_weights":[-1.2865618E-3,-9.0512633E-1,6.720516E-1,-1.1110932E0,-5.295975E-1,2.6016033E-1,1.090189E0,-1.1367621E0,-5.675045E-3,-1.0001936E0,-2.1319935E-1,5.741197E-2,1.4050874E-1,9.537671E-2,1.1214442E0,-1.515752E-2,-5.853218E-2,1.1641351E-2,-6.005326E-2,2.8395057E-2,-1.8689144E-2,-5.3781904E-2,1.2489292E-2,1.5829982E-2,-8.6028045E-3,1.0139381E-2,5.724011E-2],"categories":[],"categories_nodes":[],"categories_segments":[],"categories_sizes":[],"default_left":[0,0,0,0,0,0,0,0,0,0,0,0,0,0,0,0,0,0,0,0,0,0,0,0,0,0,0],"id":17,"left_children":[1,3,5,7,9,11,13,15,-1,17,19,-1,21,23,25,-1,-1,-1,-1,-1,-1,-1,-1,-1,-1,-1,-1],"loss_changes":[1.4529134E2,7.2948227E0,2.32794E1,1.5331345E0,5.4465055E0,7.301837E0,1.994278E0,1.429306E0,0E0,3.9975424E0,3.2226977E0,0E0,8.6458645E0,2.4092178E-1,1.1717758E0,0E0,0E0,0E0,0E0,0E0,0E0,0E0,0E0,0E0,0E0,0E0,0E0],"parents":[2147483647,0,0,1,1,2,2,3,3,4,4,5,5,6,6,7,7,9,9,10,10,12,12,13,13,14,14],"right_children":[2,4,6,8,10,12,14,16,-1,18,20,-1,22,24,26,-1,-1,-1,-1,-1,-1,-1,-1,-1,-1,-1,-1],"split_conditions":[-2.549036E-1,-4.356487E-1,1.8608141E-1,2.5055287E0,-3.4647226E-1,-9.7929215E-1,-3.359371E-1,-1.0282335E0,-5.675045E-3,-1.0225672E0,-1.1185448E0,5.741197E-2,-8.0417776E-1,5.2081496E-1,-8.3304787E-1,-1.515752E-2,-5.853218E-2,1.1641351E-2,-6.005326E-2,2.8395057E-2,-1.8689144E-2,-5.3781904E-2,1.2489292E-2,1.5829982E-2,-8.6028045E-3,1.0139381E-2,5.724011E-2],"split_indices":[1,1,1,20,24,9,21,2,0,13,14,0,5,14,13,0,0,0,0,0,0,0,0,0,0,0,0],"split_type":[0,0,0,0,0,0,0,0,0,0,0,0,0,0,0,0,0,0,0,0,0,0,0,0,0,0,0],"sum_hessian":[2.3673492E2,1.0092132E2,1.3581361E2,6.3909843E1,3.7011475E1,6.923501E1,6.65786E1,6.2170628E1,1.7392149E0,1.4010988E1,2.3000486E1,7.19983E0,6.2035175E1,2.1514835E0,6.442712E1,2.8166864E0,5.9353943E1,1.9404896E0,1.2070498E1,3.489686E0,1.9510801E1,4.385512E0,5.7649666E1,1.076853E0,1.0746304E0,1.8375818E0,6.2589535E1],"tree_param":{"num_deleted":"0","num_feature":"25","num_nodes":"27","size_leaf_vector":"1"}},{"base_weights":[-1.367334E-3,-6.671088E-1,8.626316E-1,-9.7996545E-1,-7.706605E-2,-4.2813014E-2,9.0479463E-1,-1.017704E0,1.6857356E-2,8.6776423E-1,-2.2295949E-1,6.577648E-1,1.1736319E0,-6.0558792E-2,-4.2692553E-2,-2.4765223E-2,6.513419E-2,1.3846775E-2,-2.3448749E-2,4.2823922E-2,6.801937E-3,5.962617E-2,9.617499E-3],"categories":[],"categories_nodes":[],"categories_segments":[],"categories_sizes":[],"default_left":[0,0,0,0,0,0,0,0,0,0,0,0,0,0,0,0,0,0,0,0,0,0,0],"id":18,"left_children":[1,3,5,7,9,-1,11,13,-1,15,17,19,21,-1,-1,-1,-1,-1,-1,-1,-1,-1,-1],"loss_changes":[1.3473819E2,2.434711E1,8.163002E0,4.636368E0,6.662244E0,0E0,5.868431E0,1.6355743E0,0E0,4.487579E0,5.227052E0,5.5216312E0,6.3459015E-1,0E0,0E0,0E0,0E0,0E0,0E0,0E0,0E0,0E0,0E0],"parents":[2147483647,0,0,1,1,2,2,3,3,4,4,6,6,7,7,9,9,10,10,11,11,12,12],"right_children":[2,4,6,8,10,-1,12,14,-1,16,18,20,22,-1,-1,-1,-1,-1,-1,-1,-1,-1,-1],"split_conditions":[-9.328078E-2,-3.1973413E-1,-1.1837568E0,2.592879E0,-7.215506E-1,-4.2813014E-2,4.3190753E-1,-6.987547E-1,1.6857356E-2,-3.5548672E-1,-4.2716926E-1,-2.3096617E-2,1.2427069E0,-6.0558792E-2,-4.2692553E-2,-2.4765223E-2,6.513419E-2,1.3846775E-2,-2.3448749E-2,4.2823922E-2,6.801937E-3,5.962617E-2,9.617499E-3],"split_indices":[1,1,14,24,11,0,1,1,0,19,23,20,14,0,0,0,0,0,0,0,0,0,0],"split_type":[0,0,0,0,0,0,0,0,0,0,0,0,0,0,0,0,0,0,0,0,0,0,0],"sum_hessian":[2.3224538E2,1.3130113E2,1.0094424E2,8.537314E1,4.592799E1,1.954519E0,9.898972E1,8.321612E1,2.1570253E0,5.4814262E0,4.0446564E1,5.338338E1,4.560634E1,3.522813E1,4.7987984E1,1.2923305E0,4.189096E0,1.3298594E1,2.714797E1,3.819438E1,1.5189003E1,4.4533714E1,1.0726231E0],"tree_param":{"num_deleted":"0","num_feature":"25","num_nodes":"23","size_leaf_vector":"1"}},{"base_weights":[-1.2007336E-3,-6.447497E-1,8.391247E-1,-9.5499414E-1,-7.2631165E-2,5.6767637E-1,1.1558731E0,-9.926125E-1,1.6260665E-2,8.370426E-1,-2.1211566E-1,7.41925E-1,-3.2094605E-2,5.8754202E-2,9.394253E-3,-5.9560854E-2,-4.1359972E-2,-2.4161926E-2,6.299933E-2,-2.7173577E-2,7.6880786E-3,1.7885547E-2,5.1795196E-2,-4.552092E-2,4.9257442E-2],"categories":[],"categories_nodes":[],"categories_segments":[],"categories_sizes":[],"default_left":[0,0,0,0,0,0,0,0,0,0,0,0,0,0,0,0,0,0,0,0,0,0,0,0,0],"id":19,"left_children":[1,3,5,7,9,11,13,15,-1,17,19,21,23,-1,-1,-1,-1,-1,-1,-1,-1,-1,-1,-1,-1],"loss_changes":[1.24346924E2,2.3042915E1,7.9180527E0,4.3848877E0,6.124143E0,5.8414707E0,6.170807E-1,1.7145691E0,0E0,4.20106E0,5.106709E0,4.5062313E0,1.29500265E1,0E0,0E0,0E0,0E0,0E0,0E0,0E0,0E0,0E0,0E0,0E0,0E0],"parents":[2147483647,0,0,1,1,2,2,3,3,4,4,5,5,6,6,7,7,9,9,10,10,11,11,12,12],"right_children":[2,4,6,8,10,12,14,16,-1,18,20,22,24,-1,-1,-1,-1,-1,-1,-1,-1,-1,-1,-1,-1],"split_conditions":[-9.328078E-2,-3.1973413E-1,4.3190753E-1,2.592879E0,-7.215506E-1,3.7624177E-2,1.2427069E0,-6.987547E-1,1.6260665E-2,-3.5548672E-1,-1.8438394E-1,-5.5891955E-1,2.1493357E-2,5.8754202E-2,9.394253E-3,-5.9560854E-2,-4.1359972E-2,-2.4161926E-2,6.299933E-2,-2.7173577E-2,7.6880786E-3,1.7885547E-2,5.1795196E-2,-4.552092E-2,4.9257442E-2],"split_indices":[1,1,1,24,11,9,14,1,0,19,24,12,23,0,0,0,0,0,0,0,0,0,0,0,0],"split_type":[0,0,0,0,0,0,0,0,0,0,0,0,0,0,0,0,0,0,0,0,0,0,0,0,0],"sum_hessian":[2.2793501E2,1.2921252E2,9.872248E1,8.3346664E1,4.5865864E1,5.4666424E1,4.405606E1,8.11857E1,2.160962E0,5.432944E0,4.043292E1,4.2176163E1,1.2490258E1,4.298895E1,1.0671134E0,3.407354E1,4.7112164E1,1.2835611E0,4.149383E0,2.0962702E1,1.9470217E1,1.9243185E1,2.2932978E1,6.7591686E0,5.7310896E0],"tree_param":{"num_deleted":"0","num_feature":"25","num_nodes":"25","size_leaf_vector":"1"}},{"base_weights":[-7.6969643E-4,-8.3315647E-1,6.10972E-1,-1.0473099E0,-4.6550047E-1,2.2620985E-1,1.0314145E0,-1.0752425E0,-3.4440071E-3,-6.927969E-1,1.5535252E-1,1.100376E0,1.1206871E-1,5.5677436E-2,1.0644939E0,-1.1534698E-2,-5.561908E-2,-3.8200315E-2,2.3524268E-2,4.245345E-2,-1.0924271E-2,5.9939653E-2,2.0846931E-2,-5.1712263E-2,1.0822163E-2,1.3980806E-2,-9.7042145E-3,7.299676E-3,5.4491967E-2],"categories":[],"categories_nodes":[],"categories_segments":[],"categories_sizes":[],"default_left":[0,0,0,0,0,0,0,0,0,0,0,0,0,0,0,0,0,0,0,0,0,0,0,0,0,0,0,0,0],"id":20,"left_children":[1,3,5,7,9,11,13,15,-1,17,19,21,23,25,27,-1,-1,-1,-1,-1,-1,-1,-1,-1,-1,-1,-1,-1,-1],"loss_changes":[1.14912224E2,7.0391006E0,2.0809006E1,1.5550308E0,5.3271055E0,6.781395E0,1.9378433E0,1.5589828E0,0E0,2.6173973E0,2.9679258E0,3.0111313E-2,7.6804147E0,2.2676565E-1,1.2328033E0,0E0,0E0,0E0,0E0,0E0,0E0,0E0,0E0,0E0,0E0,0E0,0E0,0E0,0E0],"parents":[2147483647,0,0,1,1,2,2,3,3,4,4,5,5,6,6,7,7,9,9,10,10,11,11,12,12,13,13,14,14],"right_children":[2,4,6,8,10,12,14,16,-1,18,20,22,24,26,28,-1,-1,-1,-1,-1,-1,-1,-1,-1,-1,-1,-1,-1,-1],"split_conditions":[-2.549036E-1,-4.356487E-1,1.8608141E-1,2.5055287E0,-1.2566514E-1,-9.7929215E-1,-3.359371E-1,-1.0282335E0,-3.4440071E-3,-2.382295E-2,-1.6823463E-1,1.3114844E-1,-8.0417776E-1,5.2081496E-1,-8.3304787E-1,-1.1534698E-2,-5.561908E-2,-3.8200315E-2,2.3524268E-2,4.245345E-2,-1.0924271E-2,5.9939653E-2,2.0846931E-2,-5.1712263E-2,1.0822163E-2,1.3980806E-2,-9.7042145E-3,7.299676E-3,5.4491967E-2],"split_indices":[1,1,1,20,12,9,21,2,0,15,4,17,5,14,13,0,0,0,0,0,0,0,0,0,0,0,0,0,0],"split_type":[0,0,0,0,0,0,0,0,0,0,0,0,0,0,0,0,0,0,0,0,0,0,0,0,0,0,0,0,0],"sum_hessian":[2.2366988E2,9.459461E1,1.2907526E2,5.8607895E1,3.5986713E1,6.820053E1,6.0874733E1,5.688497E1,1.7229242E0,2.6257774E1,9.72894E0,6.878681E0,6.132185E1,2.0840786E0,5.8790657E1,2.6999261E0,5.4185047E1,2.5066576E1,1.191199E0,2.9617376E0,6.7672024E0,5.3536725E0,1.5250084E0,4.374046E0,5.6947803E1,1.0358207E0,1.048258E0,1.760261E0,5.7030396E1],"tree_param":{"num_deleted":"0","num_feature":"25","num_nodes":"29","size_leaf_vector":"1"}},{"base_weights":[-5.0985964E-4,-6.057754E-1,7.97315E-1,-9.107175E-1,-6.680091E-2,5.293382E-1,1.1240652E0,-9.489942E-1,1.627325E-2,1.04503E0,-1.742232E-1,7.0093316E-1,-4.9639195E-2,5.722121E-2,7.914278E-3,-5.784061E-2,-3.903296E-2,6.1900545E-2,1.3970909E-2,1.5920253E-2,-2.059206E-2,1.6119856E-2,4.9781E-2,-4.406173E-2,4.727645E-2],"categories":[],"categories_nodes":[],"categories_segments":[],"categories_sizes":[],"default_left":[0,0,0,0,0,0,0,0,0,0,0,0,0,0,0,0,0,0,0,0,0,0,0,0,0],"id":21,"left_children":[1,3,5,7,9,11,13,15,-1,17,19,21,23,-1,-1,-1,-1,-1,-1,-1,-1,-1,-1,-1,-1],"loss_changes":[1.06886215E2,2.062505E1,7.76569E0,4.108528E0,5.7427034E0,5.4344454E0,6.4730453E-1,1.8307266E0,0E0,2.8124762E-1,5.201215E0,4.363062E0,1.1889085E1,0E0,0E0,0E0,0E0,0E0,0E0,0E0,0E0,0E0,0E0,0E0,0E0],"parents":[2147483647,0,0,1,1,2,2,3,3,4,4,5,5,6,6,7,7,9,9,10,10,11,11,12,12],"right_children":[2,4,6,8,10,12,14,16,-1,18,20,22,24,-1,-1,-1,-1,-1,-1,-1,-1,-1,-1,-1,-1],"split_conditions":[-9.328078E-2,-3.1973413E-1,4.3190753E-1,2.592879E0,-7.911769E-1,3.7624177E-2,1.2427069E0,-6.987547E-1,1.627325E-2,-3.4839344E-1,-4.2716926E-1,-5.5891955E-1,2.1493357E-2,5.722121E-2,7.914278E-3,-5.784061E-2,-3.903296E-2,6.1900545E-2,1.3970909E-2,1.5920253E-2,-2.059206E-2,1.6119856E-2,4.9781E-2,-4.406173E-2,4.727645E-2],"split_indices":[1,1,1,24,11,9,14,1,0,21,23,12,23,0,0,0,0,0,0,0,0,0,0,0,0],"split_type":[0,0,0,0,0,0,0,0,0,0,0,0,0,0,0,0,0,0,0,0,0,0,0,0,0],"sum_hessian":[2.1934401E2,1.2486021E2,9.448381E1,7.9302536E1,4.5557667E1,5.3350006E1,4.1133804E1,7.714613E1,2.156407E0,3.244856E0,4.2312813E1,4.0990707E1,1.23593E1,4.010343E1,1.0303717E0,3.1896381E1,4.524975E1,2.0988073E0,1.1460489E0,1.365772E1,2.8655092E1,1.885929E1,2.2131418E1,6.7953596E0,5.56394E0],"tree_param":{"num_deleted":"0","num_feature":"25","num_nodes":"25","size_leaf_vector":"1"}},{"base_weights":[1.3599776E-4,-5.553717E-1,8.2032394E-1,-8.880241E-1,-4.4864487E-2,1.1066454E-1,9.3230647E-1,-9.262049E-1,1.5699606E-2,7.3251955E-2,-1.0597788E0,-3.729685E-1,8.3825946E-1,6.203683E-1,1.0654324E0,-5.6987505E-2,-3.7816312E-2,-1.2700291E-2,2.4095735E-2,-4.3463908E-5,-6.6678606E-2,1.7817303E-3,-6.326162E-2,5.552264E-2,-6.1126477E-3,4.273056E-2,4.0612496E-3,5.5646565E-2,2.4793271E-2],"categories":[],"categories_nodes":[],"categories_segments":[],"categories_sizes":[],"default_left":[0,0,0,0,0,0,0,0,0,0,0,0,0,0,0,0,0,0,0,0,0,0,0,0,0,0,0,0,0],"id":22,"left_children":[1,3,5,7,9,11,13,15,-1,17,19,21,23,25,27,-1,-1,-1,-1,-1,-1,-1,-1,-1,-1,-1,-1,-1,-1],"loss_changes":[9.899859E1,2.1959488E1,6.8693886E0,3.8880768E0,6.3307424E0,4.919835E0,2.4804153E0,1.9030533E0,0E0,6.496337E0,1.5941315E0,3.1648104E0,1.5830498E0,3.0904903E0,8.447952E-1,0E0,0E0,0E0,0E0,0E0,0E0,0E0,0E0,0E0,0E0,0E0,0E0,0E0,0E0],"parents":[2147483647,0,0,1,1,2,2,3,3,4,4,5,5,6,6,7,7,9,9,10,10,11,11,12,12,13,13,14,14],"right_children":[2,4,6,8,10,12,14,16,-1,18,20,22,24,26,28,-1,-1,-1,-1,-1,-1,-1,-1,-1,-1,-1,-1,-1,-1],"split_conditions":[-5.8972873E-2,-3.1973413E-1,-2.325903E-1,2.592879E0,3.6280498E-1,-2.3711343E-1,2.3680346E-1,-6.987547E-1,1.5699606E-2,-1.8438394E-1,-1.7231122E-1,-1.3783564E-1,5.469284E-1,-2.3175811E-2,1.2408888E0,-5.6987505E-2,-3.7816312E-2,-1.2700291E-2,2.4095735E-2,-4.3463908E-5,-6.6678606E-2,1.7817303E-3,-6.326162E-2,5.552264E-2,-6.1126477E-3,4.273056E-2,4.0612496E-3,5.5646565E-2,2.4793271E-2],"split_indices":[1,1,21,24,21,23,1,1,0,24,4,19,0,16,14,0,0,0,0,0,0,0,0,0,0,0,0,0,0],"split_type":[0,0,0,0,0,0,0,0,0,0,0,0,0,0,0,0,0,0,0,0,0,0,0,0,0,0,0,0,0],"sum_hessian":[2.1528296E2,1.2854391E2,8.6739044E1,7.738165E1,5.1162266E1,1.2092742E1,7.464631E1,7.522176E1,2.159887E0,4.665979E1,4.502475E0,7.556995E0,4.5357466E0,2.4020939E1,5.0625366E1,3.079804E1,4.442372E1,2.612072E1,2.0539068E1,1.1310928E0,3.371382E0,5.8418446E0,1.7151506E0,3.4125748E0,1.1231718E0,1.6337584E1,7.683355E0,4.5847908E1,4.77746E0],"tree_param":{"num_deleted":"0","num_feature":"25","num_nodes":"29","size_leaf_vector":"1"}},{"base_weights":[8.3739615E-5,-5.371648E-1,7.9992896E-1,-8.659748E-1,-4.377231E-2,4.053488E-1,1.0102997E0,-9.0406126E-1,1.51477335E-2,6.99126E-2,-1.0266287E0,7.8176063E-1,3.0093532E-2,7.3528336E-3,1.0367192E0,-5.6174513E-2,-3.663489E-2,-2.5478844E-2,1.4821708E-2,-4.230895E-5,-6.471537E-2,5.1359035E-2,4.982742E-3,-4.1878913E-2,1.6269458E-2,7.934677E-3,5.3202476E-2],"categories":[],"categories_nodes":[],"categories_segments":[],"categories_sizes":[],"default_left":[0,0,0,0,0,0,0,0,0,0,0,0,0,0,0,0,0,0,0,0,0,0,0,0,0,0,0],"id":23,"left_children":[1,3,5,7,9,11,13,15,-1,17,19,21,23,-1,25,-1,-1,-1,-1,-1,-1,-1,-1,-1,-1,-1,-1],"loss_changes":[9.1643814E1,2.0658924E1,6.703518E0,3.6798325E0,5.890122E0,4.42148E0,1.1069641E0,1.9721565E0,0E0,6.4006586E0,1.4987707E0,2.5208712E0,4.5767016E0,0E0,1.1129684E0,0E0,0E0,0E0,0E0,0E0,0E0,0E0,0E0,0E0,0E0,0E0,0E0],"parents":[2147483647,0,0,1,1,2,2,3,3,4,4,5,5,6,6,7,7,9,9,10,10,11,11,12,12,14,14],"right_children":[2,4,6,8,10,12,14,16,-1,18,20,22,24,-1,26,-1,-1,-1,-1,-1,-1,-1,-1,-1,-1,-1,-1],"split_conditions":[-5.8972873E-2,-3.1973413E-1,1.6305737E-1,2.592879E0,3.6280498E-1,-1.9809178E-1,-4.49992E-1,-6.987547E-1,1.51477335E-2,-3.108001E-1,-1.7231122E-1,8.2734145E-2,-5.5891955E-1,7.3528336E-3,-6.875324E-1,-5.6174513E-2,-3.663489E-2,-2.5478844E-2,1.4821708E-2,-4.230895E-5,-6.471537E-2,5.1359035E-2,4.982742E-3,-4.1878913E-2,1.6269458E-2,7.934677E-3,5.3202476E-2],"split_indices":[1,1,17,24,21,9,23,1,0,15,4,10,12,0,13,0,0,0,0,0,0,0,0,0,0,0,0],"split_type":[0,0,0,0,0,0,0,0,0,0,0,0,0,0,0,0,0,0,0,0,0,0,0,0,0,0,0],"sum_hessian":[2.1126619E2,1.2657522E2,8.469097E1,7.5502914E1,5.1072304E1,3.0468956E1,5.422202E1,7.333991E1,2.1629994E0,4.6609905E1,4.4624E0,1.4670233E1,1.5798723E1,1.8051741E0,5.2416843E1,2.9723347E1,4.361657E1,1.274808E1,3.3861824E1,1.1310844E0,3.3313155E0,1.0416503E1,4.2537293E0,3.5452507E0,1.2253472E1,1.7877964E0,5.0629047E1],"tree_param":{"num_deleted":"0","num_feature":"25","num_nodes":"27","size_leaf_vector":"1"}},{"base_weights":[-1.4634267E-4,-5.1978356E-1,7.792685E-1,-8.4450924E-1,-4.3151245E-2,-4.6386117E-1,8.393003E-1,-8.825003E-1,1.4616643E-2,6.628357E-2,-9.956146E-1,3.848996E-2,-5.4185268E-2,6.155986E-1,1.1021879E0,-5.539742E-2,-3.5486467E-2,-1.2245404E-2,2.2788536E-2,-4.1187544E-5,-6.289639E-2,-6.5738484E-3,3.3989727E-2,5.7695765E-2,2.7969917E-2],"categories":[],"categories_nodes":[],"categories_segments":[],"categories_sizes":[],"default_left":[0,0,0,0,0,0,0,0,0,0,0,0,0,0,0,0,0,0,0,0,0,0,0,0,0],"id":24,"left_children":[1,3,5,7,9,11,13,15,-1,17,19,-1,-1,21,23,-1,-1,-1,-1,-1,-1,-1,-1,-1,-1],"loss_changes":[8.480556E1,1.9408073E1,6.6399994E0,3.4829254E0,5.4821258E0,4.277191E0,4.0412216E0,2.0377235E0,0E0,5.874266E0,1.4126177E0,0E0,0E0,2.2775059E0,3.5492706E-1,0E0,0E0,0E0,0E0,0E0,0E0,0E0,0E0,0E0,0E0],"parents":[2147483647,0,0,1,1,2,2,3,3,4,4,5,5,6,6,7,7,9,9,10,10,13,13,14,14],"right_children":[2,4,6,8,10,12,14,16,-1,18,20,-1,-1,22,24,-1,-1,-1,-1,-1,-1,-1,-1,-1,-1],"split_conditions":[-5.8972873E-2,-3.1973413E-1,-3.741447E-1,2.592879E0,3.6280498E-1,-1.6842028E-1,4.608868E-1,-6.987547E-1,1.4616643E-2,-1.8438394E-1,-1.7231122E-1,3.848996E-2,-5.4185268E-2,-3.5499024E-1,2.4563372E0,-5.539742E-2,-3.5486467E-2,-1.2245404E-2,2.2788536E-2,-4.1187544E-5,-6.289639E-2,-6.5738484E-3,3.3989727E-2,5.7695765E-2,2.7969917E-2],"split_indices":[1,1,19,24,21,8,1,1,0,24,4,0,0,21,0,0,0,0,0,0,0,0,0,0,0],"split_type":[0,0,0,0,0,0,0,0,0,0,0,0,0,0,0,0,0,0,0,0,0,0,0,0,0],"sum_hessian":[2.0738965E2,1.24631035E2,8.275862E1,7.3669075E1,5.096196E1,3.5024962E0,7.925612E1,7.15033E1,2.1657736E0,4.6544556E1,4.4174037E0,1.0903922E0,2.4121041E0,4.462478E1,3.4631344E1,2.8673956E1,4.2829346E1,2.6079119E1,2.0465437E1,1.1310763E0,3.2863274E0,3.4482255E0,4.117655E1,3.059022E1,4.0411263E0],"tree_param":{"num_deleted":"0","num_feature":"25","num_nodes":"25","size_leaf_vector":"1"}},{"base_weights":[-2.7041422E-4,-5.027242E-1,7.5971097E-1,-8.780988E-1,-1.072931E-1,3.7087512E-1,9.754533E-1,-9.401785E-1,3.1010127E-1,-6.911116E-1,6.732575E-3,7.412292E-1,9.651818E-3,6.087389E-3,1.0029229E0,1.02154175E-2,-4.8282754E-2,-2.5128765E-2,5.078413E-2,1.1212051E-2,-5.020621E-2,6.031417E-3,-4.432957E-2,4.9440168E-2,3.3292547E-3,-4.1080598E-2,1.4982335E-2,6.5880693E-3,5.1579367E-2],"categories":[],"categories_nodes":[],"categories_segments":[],"categories_sizes":[],"default_left":[0,0,0,0,0,0,0,0,0,0,0,0,0,0,0,0,0,0,0,0,0,0,0,0,0,0,0,0,0],"id":25,"left_children":[1,3,5,7,9,11,13,15,17,19,21,23,25,-1,27,-1,-1,-1,-1,-1,-1,-1,-1,-1,-1,-1,-1,-1,-1],"loss_changes":[7.849097E1,1.8273243E1,6.5011673E0,4.963791E0,4.0920553E0,4.114262E0,1.0974159E0,1.9596939E0,2.7450523E0,3.1024232E0,5.434114E0,2.4726305E0,4.2500186E0,0E0,1.1187363E0,0E0,0E0,0E0,0E0,0E0,0E0,0E0,0E0,0E0,0E0,0E0,0E0,0E0,0E0],"parents":[2147483647,0,0,1,1,2,2,3,3,4,4,5,5,6,6,7,7,8,8,9,9,10,10,11,11,12,12,14,14],"right_children":[2,4,6,8,10,12,14,16,18,20,22,24,26,-1,28,-1,-1,-1,-1,-1,-1,-1,-1,-1,-1,-1,-1,-1,-1],"split_conditions":[-5.8972873E-2,-3.7929448E-1,1.6305737E-1,2.5560884E0,-8.803061E-1,-1.9809178E-1,-4.49992E-1,-1.382297E0,-5.97458E-1,-7.215506E-1,3.6280498E-1,8.2734145E-2,-5.5891955E-1,6.087389E-3,-6.875324E-1,1.02154175E-2,-4.8282754E-2,-2.5128765E-2,5.078413E-2,1.1212051E-2,-5.020621E-2,6.031417E-3,-4.432957E-2,4.9440168E-2,3.3292547E-3,-4.1080598E-2,1.4982335E-2,6.5880693E-3,5.1579367E-2],"split_indices":[1,1,17,6,12,9,23,14,1,11,21,10,12,0,13,0,0,0,0,0,0,0,0,0,0,0,0,0,0],"split_type":[0,0,0,0,0,0,0,0,0,0,0,0,0,0,0,0,0,0,0,0,0,0,0,0,0,0,0,0,0],"sum_hessian":[2.0355132E2,1.2274094E2,8.081039E1,6.2341152E1,6.039978E1,2.9807295E1,5.100309E1,5.944412E1,2.8970332E0,9.042191E0,5.135759E1,1.4198203E1,1.5609093E1,1.7592975E0,4.9243793E1,1.1415713E0,5.8302547E1,1.4800507E0,1.4169824E0,2.376403E0,6.665787E0,4.6317265E1,5.0403266E0,1.0045968E1,4.152235E0,3.562907E0,1.20461855E1,1.7469785E0,4.7496815E1],"tree_param":{"num_deleted":"0","num_feature":"25","num_nodes":"29","size_leaf_vector":"1"}},{"base_weights":[-2.416301E-4,-7.249735E-1,4.973401E-1,-9.3852806E-1,-3.8035235E-1,1.6551134E-1,9.302644E-1,-8.293707E-2,-9.8061687E-1,-9.06541E-1,-3.1858146E-2,9.812449E-1,6.375768E-2,-1.759268E-4,9.6737754E-1,3.991912E-2,-3.860232E-2,-5.0881453E-2,1.2502257E-3,1.518279E-2,-5.6822326E-2,3.746834E-2,-1.1063467E-2,5.3746976E-2,1.6219756E-2,-5.786125E-2,7.97551E-3,2.2038862E-3,4.9873497E-2],"categories":[],"categories_nodes":[],"categories_segments":[],"categories_sizes":[],"default_left":[0,0,0,0,0,0,0,0,0,0,0,0,0,0,0,0,0,0,0,0,0,0,0,0,0,0,0,0,0],"id":26,"left_children":[1,3,5,7,9,11,13,15,17,19,21,23,25,-1,27,-1,-1,-1,-1,-1,-1,-1,-1,-1,-1,-1,-1,-1,-1],"loss_changes":[7.2795334E1,5.690777E0,1.7040295E1,1.7211647E0,6.0446935E0,5.662424E0,1.7957077E0,2.7051322E0,1.7976952E0,4.0065746E0,3.26753E0,1.17785454E-1,7.4790463E0,0E0,1.3381348E0,0E0,0E0,0E0,0E0,0E0,0E0,0E0,0E0,0E0,0E0,0E0,0E0,0E0,0E0],"parents":[2147483647,0,0,1,1,2,2,3,3,4,4,5,5,6,6,7,7,8,8,9,9,10,10,11,11,12,12,14,14],"right_children":[2,4,6,8,10,12,14,16,18,20,22,24,26,-1,28,-1,-1,-1,-1,-1,-1,-1,-1,-1,-1,-1,-1,-1,-1],"split_conditions":[-2.6207957E-1,-4.356487E-1,1.8608141E-1,-1.0282335E0,-3.4619224E-1,-9.7929215E-1,-3.359371E-1,-6.070007E-1,2.5055287E0,-1.0225672E0,-1.1185448E0,1.3114844E-1,-8.063025E-1,-1.759268E-4,-8.3304787E-1,3.991912E-2,-3.860232E-2,-5.0881453E-2,1.2502257E-3,1.518279E-2,-5.6822326E-2,3.746834E-2,-1.1063467E-2,5.3746976E-2,1.6219756E-2,-5.786125E-2,7.97551E-3,2.2038862E-3,4.9873497E-2],"split_indices":[1,1,1,2,6,9,21,13,20,13,14,17,6,0,13,0,0,0,0,0,0,0,0,0,0,0,0,0,0],"split_type":[0,0,0,0,0,0,0,0,0,0,0,0,0,0,0,0,0,0,0,0,0,0,0,0,0,0,0,0,0],"sum_hessian":[1.9986551E2,8.11756E1,1.1868991E2,4.9054302E1,3.2121296E1,6.797251E1,5.0717407E1,2.43925E0,4.6615055E1,1.215988E1,1.9961414E1,6.579884E0,6.1392624E1,1.973307E0,4.87441E1,1.0007693E0,1.4384806E0,4.494876E1,1.6662924E0,1.8900553E0,1.0269824E1,3.3184006E0,1.6643013E1,5.2014327E0,1.3784516E0,3.6583102E0,5.7734314E1,1.6163273E0,4.712777E1],"tree_param":{"num_deleted":"0","num_feature":"25","num_nodes":"29","size_leaf_vector":"1"}},{"base_weights":[-2.1977388E-4,-4.7210285E-1,7.231897E-1,-9.2171484E-1,-1.6438502E-1,3.4152484E-1,9.4403726E-1,-7.895518E-2,-9.6438E-1,-2.7367994E-1,6.237628E-1,7.0847434E-1,-9.196852E-3,4.9364734E-3,9.7262967E-1,3.8582843E-2,-3.793312E-2,-5.0100803E-2,1.2110053E-3,-3.8192045E-2,-5.625378E-3,6.656831E-2,-9.478047E-3,4.78775E-2,2.1549547E-3,-3.9859246E-2,1.3635931E-2,6.370549E-3,5.0096165E-2],"categories":[],"categories_nodes":[],"categories_segments":[],"categories_sizes":[],"default_left":[0,0,0,0,0,0,0,0,0,0,0,0,0,0,0,0,0,0,0,0,0,0,0,0,0,0,0,0,0],"id":27,"left_children":[1,3,5,7,9,11,13,15,17,19,21,23,25,-1,27,-1,-1,-1,-1,-1,-1,-1,-1,-1,-1,-1,-1,-1,-1],"loss_changes":[6.764782E1,1.6441853E1,6.2719193E0,1.6682739E0,6.4089966E0,3.8987153E0,1.0880508E0,2.5667498E0,1.7390556E0,4.9934125E0,5.5036745E0,2.4102626E0,3.871855E0,0E0,1.0428581E0,0E0,0E0,0E0,0E0,0E0,0E0,0E0,0E0,0E0,0E0,0E0,0E0,0E0,0E0],"parents":[2147483647,0,0,1,1,2,2,3,3,4,4,5,5,6,6,7,7,8,8,9,9,10,10,11,11,12,12,14,14],"right_children":[2,4,6,8,10,12,14,16,18,20,22,24,26,-1,28,-1,-1,-1,-1,-1,-1,-1,-1,-1,-1,-1,-1,-1,-1],"split_conditions":[-5.8972873E-2,-4.356487E-1,1.6305737E-1,-1.0282335E0,2.800298E-1,-1.9809178E-1,-4.49992E-1,-6.070007E-1,2.5055287E0,-3.8769493E-1,4.786193E-1,8.2734145E-2,-5.5891955E-1,4.9364734E-3,-6.875324E-1,3.8582843E-2,-3.793312E-2,-5.0100803E-2,1.2110053E-3,-3.8192045E-2,-5.625378E-3,6.656831E-2,-9.478047E-3,4.78775E-2,2.1549547E-3,-3.9859246E-2,1.3635931E-2,6.370549E-3,5.0096165E-2],"split_indices":[1,1,17,2,12,9,23,13,20,15,0,10,12,0,13,0,0,0,0,0,0,0,0,0,0,0,0,0,0],"split_type":[0,0,0,0,0,0,0,0,0,0,0,0,0,0,0,0,0,0,0,0,0,0,0,0,0,0,0,0,0],"sum_hessian":[1.9616858E2,1.18934494E2,7.723408E1,4.7514656E1,7.141984E1,2.9243095E1,4.7990986E1,2.4269032E0,4.5087753E1,6.3295246E1,8.124595E0,1.37924385E1,1.5450657E1,1.7158686E0,4.6275116E1,1.017849E0,1.4090543E0,4.3421135E1,1.6666172E0,1.473712E1,4.8558125E1,4.0040603E0,4.1205344E0,9.716183E0,4.0762553E0,3.5895848E0,1.1861073E1,1.7292734E0,4.454584E1],"tree_param":{"num_deleted":"0","num_feature":"25","num_nodes":"29","size_leaf_vector":"1"}},{"base_weights":[6.341582E-5,-4.557215E-1,7.043054E-1,-9.05286E-1,-1.5654145E-1,4.53193E-1,1.0563282E0,6.2379125E-3,-9.3650365E-1,-2.615841E-1,6.0105234E-1,-4.459886E-2,5.1734084E-1,5.5766582E-2,4.6976212E-1,-4.879373E-2,-2.0690587E-4,-3.686988E-2,-5.351409E-3,6.4296424E-2,-9.101132E-3,2.938594E-2,-1.2158761E-2,4.1139085E-2,-1.6635073E-2],"categories":[],"categories_nodes":[],"categories_segments":[],"categories_sizes":[],"default_left":[0,0,0,0,0,0,0,0,0,0,0,0,0,0,0,0,0,0,0,0,0,0,0,0,0],"id":28,"left_children":[1,3,5,7,9,11,13,-1,15,17,19,-1,21,-1,23,-1,-1,-1,-1,-1,-1,-1,-1,-1,-1],"loss_changes":[6.2494865E1,1.5756239E1,6.283558E0,1.6288147E0,5.901214E0,4.4653206E0,5.5236435E-1,0E0,1.6755447E0,4.6339974E0,5.110427E0,0E0,2.5472603E0,0E0,1.5683546E0,0E0,0E0,0E0,0E0,0E0,0E0,0E0,0E0,0E0,0E0],"parents":[2147483647,0,0,1,1,2,2,3,3,4,4,5,5,6,6,8,8,9,9,10,10,12,12,14,14],"right_children":[2,4,6,8,10,12,14,-1,16,18,20,-1,22,-1,24,-1,-1,-1,-1,-1,-1,-1,-1,-1,-1],"split_conditions":[-5.8972873E-2,-4.356487E-1,4.608868E-1,-1.3818963E0,2.800298E-1,-6.227088E-1,2.4563372E0,6.2379125E-3,2.5269775E0,-3.8769493E-1,4.786193E-1,-4.459886E-2,6.2061054E-1,5.5766582E-2,8.047256E-1,-4.879373E-2,-2.0690587E-4,-3.686988E-2,-5.351409E-3,6.4296424E-2,-9.101132E-3,2.938594E-2,-1.2158761E-2,4.1139085E-2,-1.6635073E-2],"split_indices":[1,1,1,14,12,21,0,0,22,15,0,0,21,0,10,0,0,0,0,0,0,0,0,0,0],"split_type":[0,0,0,0,0,0,0,0,0,0,0,0,0,0,0,0,0,0,0,0,0,0,0,0,0],"sum_hessian":[1.9269849E2,1.1719977E2,7.549871E1,4.602067E1,7.117909E1,4.5400234E1,3.0098478E1,1.2655851E0,4.4755085E1,6.308666E1,8.092438E0,1.4790826E0,4.3921154E1,2.6528479E1,3.5699992E0,4.289701E1,1.8580757E0,1.45431795E1,4.854348E1,3.9743366E0,4.118101E0,4.040893E1,3.5122206E0,2.4617202E0,1.1082791E0],"tree_param":{"num_deleted":"0","num_feature":"25","num_nodes":"25","size_leaf_vector":"1"}},{"base_weights":[1.9843124E-4,-6.708143E-1,4.5180696E-1,-9.2275584E-1,-3.809502E-1,1.4480141E-1,8.841212E-1,-1.0010961E0,-3.0609193E-1,-8.43595E-1,-8.0492615E-4,-5.878603E-1,2.5134927E-1,-1.8659149E-3,9.239972E-1,-6.580616E-3,-5.2167516E-2,3.8045377E-2,-3.4609858E-2,1.5588437E-2,-5.0458845E-2,4.271855E-2,-1.3754666E-2,7.113254E-3,-5.4130483E-2,2.3152834E-2,-1.1197267E-2,5.539299E-4,4.7822416E-2],"categories":[],"categories_nodes":[],"categories_segments":[],"categories_sizes":[],"default_left":[0,0,0,0,0,0,0,0,0,0,0,0,0,0,0,0,0,0,0,0,0,0,0,0,0,0,0,0,0],"id":29,"left_children":[1,3,5,7,9,11,13,15,17,19,21,23,25,-1,27,-1,-1,-1,-1,-1,-1,-1,-1,-1,-1,-1,-1,-1,-1],"loss_changes":[5.7977245E1,5.26915E0,1.5049713E1,1.6488113E0,6.5931573E0,5.461186E0,1.7721176E0,1.165844E0,2.9995716E0,3.5496569E0,5.297429E0,3.3838542E0,6.153596E0,0E0,1.3334541E0,0E0,0E0,0E0,0E0,0E0,0E0,0E0,0E0,0E0,0E0,0E0,0E0,0E0,0E0],"parents":[2147483647,0,0,1,1,2,2,3,3,4,4,5,5,6,6,7,7,8,8,9,9,10,10,11,11,12,12,14,14],"right_children":[2,4,6,8,10,12,14,16,18,20,22,24,26,-1,28,-1,-1,-1,-1,-1,-1,-1,-1,-1,-1,-1,-1,-1,-1],"split_conditions":[-2.6207957E-1,-5.0128603E-1,1.8608141E-1,6.0362315E-1,-3.2874337E-1,-8.232512E-1,-3.359371E-1,-1.0387727E0,-4.3795038E-2,-1.0225672E0,-5.547832E-1,-9.1725004E-1,3.9881367E-2,-1.8659149E-3,-8.3304787E-1,-6.580616E-3,-5.2167516E-2,3.8045377E-2,-3.4609858E-2,1.5588437E-2,-5.0458845E-2,4.271855E-2,-1.3754666E-2,7.113254E-3,-5.4130483E-2,2.3152834E-2,-1.1197267E-2,5.539299E-4,4.7822416E-2],"split_indices":[1,1,1,8,24,12,21,0,12,13,13,12,9,0,13,0,0,0,0,0,0,0,0,0,0,0,0,0,0],"split_type":[0,0,0,0,0,0,0,0,0,0,0,0,0,0,0,0,0,0,0,0,0,0,0,0,0,0,0,0,0],"sum_hessian":[1.8932178E2,7.596518E1,1.1335659E2,3.947298E1,3.6492195E1,6.7065414E1,4.6291183E1,3.447048E1,5.002498E0,1.5910113E1,2.0582083E1,7.941241E0,5.9124172E1,1.9228493E0,4.4368332E1,1.7882237E0,3.268226E1,1.0712843E0,3.9312139E0,1.8836797E0,1.4026434E1,4.484731E0,1.6097351E1,3.4953842E0,4.445856E0,4.0922207E1,1.8201963E1,1.5690486E0,4.2799282E1],"tree_param":{"num_deleted":"0","num_feature":"25","num_nodes":"29","size_leaf_vector":"1"}},{"base_weights":[-1.11673064E-4,-4.2680737E-1,6.692003E-1,-8.7230086E-1,-1.4553007E-1,4.2007822E-1,1.0348786E0,-9.864884E-1,-4.485791E-1,-2.4699281E-1,5.838583E-1,-4.3276086E-2,4.8341632E-1,5.4883875E-2,4.330388E-1,-5.4235395E-2,-2.6871508E-2,9.567369E-3,-3.7321653E-2,-3.5183642E-2,-5.0589065E-3,6.2113076E-2,-8.24036E-3,5.259932E-2,1.8318249E-2,4.003873E-2,-1.8437142E-2],"categories":[],"categories_nodes":[],"categories_segments":[],"categories_sizes":[],"default_left":[0,0,0,0,0,0,0,0,0,0,0,0,0,0,0,0,0,0,0,0,0,0,0,0,0,0,0],"id":30,"left_children":[1,3,5,7,9,11,13,15,17,19,21,-1,23,-1,25,-1,-1,-1,-1,-1,-1,-1,-1,-1,-1,-1,-1],"loss_changes":[5.3688435E1,1.4258535E1,6.2325783E0,1.6975288E0,5.4408736E0,4.100136E0,6.1969566E-1,9.169884E-1,2.2820287E0,4.1595435E0,4.6595106E0,0E0,2.5251322E0,0E0,1.5893714E0,0E0,0E0,0E0,0E0,0E0,0E0,0E0,0E0,0E0,0E0,0E0,0E0],"parents":[2147483647,0,0,1,1,2,2,3,3,4,4,5,5,6,6,7,7,8,8,9,9,10,10,12,12,14,14],"right_children":[2,4,6,8,10,12,14,16,18,20,22,-1,24,-1,26,-1,-1,-1,-1,-1,-1,-1,-1,-1,-1,-1,-1],"split_conditions":[-5.8972873E-2,-4.356487E-1,4.608868E-1,-3.9176923E-1,2.800298E-1,-6.227088E-1,2.4563372E0,1.3668095E-1,-5.7809263E-1,-3.8769493E-1,4.786193E-1,-4.3276086E-2,-6.895218E-1,5.4883875E-2,7.160821E-1,-5.4235395E-2,-2.6871508E-2,9.567369E-3,-3.7321653E-2,-3.5183642E-2,-5.0589065E-3,6.2113076E-2,-8.24036E-3,5.259932E-2,1.8318249E-2,4.003873E-2,-1.8437142E-2],"split_indices":[1,1,1,19,12,21,0,13,13,15,0,0,11,0,23,0,0,0,0,0,0,0,0,0,0,0,0],"split_type":[0,0,0,0,0,0,0,0,0,0,0,0,0,0,0,0,0,0,0,0,0,0,0,0,0,0,0],"sum_hessian":[1.8598956E2,1.13801704E2,7.218786E1,4.3230705E1,7.0571E1,4.421483E1,2.7973028E1,3.300747E1,1.0223239E1,6.253354E1,8.037457E0,1.4813865E0,4.273344E1,2.4583952E1,3.3890748E0,2.5922169E1,7.0852985E0,3.3606358E0,6.8626027E0,1.4208342E1,4.83252E1,3.9257298E0,4.111728E0,5.9319496E0,3.680149E1,2.3242962E0,1.0647786E0],"tree_param":{"num_deleted":"0","num_feature":"25","num_nodes":"27","size_leaf_vector":"1"}},{"base_weights":[-4.090987E-5,-6.5045345E-1,4.1428012E-1,-1.0232272E0,-4.5898646E-1,1.2635699E-1,8.5404444E-1,-5.2586675E-2,-9.713369E-3,-5.928208E-1,4.307191E-1,9.0236855E-1,2.6481451E-2,5.3577584E-1,1.024088E0,-4.3392863E-2,-1.7447008E-2,5.3764995E-2,-2.1558223E-2,5.5256445E-2,-1.02459295E-2,-4.193247E-2,6.5467814E-3,3.7686285E-2,-2.824149E-2,5.4430287E-2,2.1095224E-2],"categories":[],"categories_nodes":[],"categories_segments":[],"categories_sizes":[],"default_left":[0,0,0,0,0,0,0,0,0,0,0,0,0,0,0,0,0,0,0,0,0,0,0,0,0,0,0],"id":31,"left_children":[1,3,5,7,9,11,13,-1,-1,15,17,19,21,23,25,-1,-1,-1,-1,-1,-1,-1,-1,-1,-1,-1,-1],"loss_changes":[4.9826298E1,4.665676E0,1.4193451E1,3.5340118E-1,6.131363E0,5.3574038E0,1.8605347E0,0E0,0E0,2.6026545E0,4.370147E0,1.9971919E0,5.76179E0,4.647341E0,6.2535095E-1,0E0,0E0,0E0,0E0,0E0,0E0,0E0,0E0,0E0,0E0,0E0,0E0],"parents":[2147483647,0,0,1,1,2,2,3,3,4,4,5,5,6,6,9,9,10,10,11,11,12,12,13,13,14,14],"right_children":[2,4,6,8,10,12,14,-1,-1,16,18,20,22,24,26,-1,-1,-1,-1,-1,-1,-1,-1,-1,-1,-1,-1],"split_conditions":[-2.706119E-1,-6.987547E-1,1.8608141E-1,1.4887126E-1,2.8253415E-1,-7.0985615E-1,4.608868E-1,-5.2586675E-2,-9.713369E-3,-3.4619224E-1,1.567238E-1,7.272346E-2,-8.514124E-1,4.8776105E-1,2.4563372E0,-4.3392863E-2,-1.7447008E-2,5.3764995E-2,-2.1558223E-2,5.5256445E-2,-1.02459295E-2,-4.193247E-2,6.5467814E-3,3.7686285E-2,-2.824149E-2,5.4430287E-2,2.1095224E-2],"split_indices":[1,1,1,21,9,11,1,0,0,6,11,12,12,17,0,0,0,0,0,0,0,0,0,0,0,0,0],"split_type":[0,0,0,0,0,0,0,0,0,0,0,0,0,0,0,0,0,0,0,0,0,0,0,0,0,0,0],"sum_hessian":[1.8289825E2,7.094964E1,1.1194862E2,2.260162E1,4.834802E1,6.843203E1,4.351659E1,2.159043E1,1.0111911E0,4.2316265E1,6.0317535E0,6.886952E0,6.154508E1,1.6599089E1,2.6917503E1,1.8685339E1,2.3630926E1,3.3092406E0,2.722513E0,5.8226833E0,1.064269E0,5.873074E0,5.5672005E1,1.4118428E1,2.4806607E0,2.3583057E1,3.3344443E0],"tree_param":{"num_deleted":"0","num_feature":"25","num_nodes":"27","size_leaf_vector":"1"}},{"base_weights":[-9.518385E-6,-3.9970982E-1,6.364251E-1,-8.412916E-1,-1.3395095E-1,3.9291432E-1,1.0135238E0,1.4713026E-2,-8.903524E-1,-2.3050307E-1,5.5696476E-1,5.8678126E-1,-5.7270892E-2,5.399573E-2,4.1072783E-1,3.6383267E-2,-3.4094177E-2,-4.857033E-2,-1.2454594E-2,-3.3412136E-2,-4.6594637E-3,5.978734E-2,-8.145738E-3,-4.4766795E-2,3.3771094E-2,-2.6326869E-2,3.3855733E-2,3.93029E-2,-1.911819E-2],"categories":[],"categories_nodes":[],"categories_segments":[],"categories_sizes":[],"default_left":[0,0,0,0,0,0,0,0,0,0,0,0,0,0,0,0,0,0,0,0,0,0,0,0,0,0,0,0,0],"id":32,"left_children":[1,3,5,7,9,11,13,15,17,19,21,23,25,-1,27,-1,-1,-1,-1,-1,-1,-1,-1,-1,-1,-1,-1,-1,-1],"loss_changes":[4.627144E1,1.2999071E1,6.045189E0,1.7680645E0,4.860708E0,3.8972645E0,6.3295555E-1,2.109754E0,1.8131752E0,3.721433E0,4.3291254E0,4.681679E0,5.262804E0,0E0,1.5753284E0,0E0,0E0,0E0,0E0,0E0,0E0,0E0,0E0,0E0,0E0,0E0,0E0,0E0,0E0],"parents":[2147483647,0,0,1,1,2,2,3,3,4,4,5,5,6,6,7,7,8,8,9,9,10,10,11,11,12,12,14,14],"right_children":[2,4,6,8,10,12,14,16,18,20,22,24,26,-1,28,-1,-1,-1,-1,-1,-1,-1,-1,-1,-1,-1,-1,-1,-1],"split_conditions":[-5.8972873E-2,-4.356487E-1,4.608868E-1,-1.0282335E0,2.800298E-1,-2.3096617E-2,2.4563372E0,-7.254423E-1,6.0362315E-1,-3.8769493E-1,4.786193E-1,-1.1628623E0,2.4456651E0,5.399573E-2,8.7559474E-1,3.6383267E-2,-3.4094177E-2,-4.857033E-2,-1.2454594E-2,-3.3412136E-2,-4.6594637E-3,5.978734E-2,-8.145738E-3,-4.4766795E-2,3.3771094E-2,-2.6326869E-2,3.3855733E-2,3.93029E-2,-1.911819E-2],"split_indices":[1,1,1,2,12,20,0,12,8,15,0,14,16,0,15,0,0,0,0,0,0,0,0,0,0,0,0,0,0],"split_type":[0,0,0,0,0,0,0,0,0,0,0,0,0,0,0,0,0,0,0,0,0,0,0,0,0,0,0,0,0],"sum_hessian":[1.7989665E2,1.10728035E2,6.9168625E1,4.0788586E1,6.9939445E1,4.326942E1,2.5899202E1,2.248974E0,3.853961E1,6.1948784E1,7.9906616E0,3.003275E1,1.3236671E1,2.2616734E1,3.2824702E0,1.0893974E0,1.1595767E0,3.3757843E1,4.781772E0,1.3869136E1,4.807965E1,3.8835618E0,4.1070995E0,1.1812291E0,2.885152E1,8.248787E0,4.987885E0,2.2340677E0,1.0484027E0],"tree_param":{"num_deleted":"0","num_feature":"25","num_nodes":"29","size_leaf_vector":"1"}},{"base_weights":[1.7178479E-4,-6.858335E-1,3.4955117E-1,-1.0023085E0,-4.9056247E-1,8.7486744E-2,8.253032E-1,-5.367574E-2,-4.5340905E-1,-9.4318956E-1,-1.9957466E-1,8.930645E-1,-2.1455282E-2,5.0670975E-1,1.0032792E0,2.7850706E-3,-3.836888E-2,-3.5099958E-3,-5.5523824E-2,7.017175E-2,-2.0316593E-2,-2.0908294E-2,5.6776322E-2,-3.0643204E-2,3.672848E-3,3.6320943E-2,-2.7794579E-2,5.3578474E-2,2.0001749E-2],"categories":[],"categories_nodes":[],"categories_segments":[],"categories_sizes":[],"default_left":[0,0,0,0,0,0,0,0,0,0,0,0,0,0,0,0,0,0,0,0,0,0,0,0,0,0,0,0,0],"id":33,"left_children":[1,3,5,7,9,11,13,-1,15,17,19,21,23,25,27,-1,-1,-1,-1,-1,-1,-1,-1,-1,-1,-1,-1,-1,-1],"loss_changes":[4.2878975E1,3.2390308E0,1.4706386E1,3.7613678E-1,4.986909E0,6.825118E0,1.872179E0,0E0,7.246838E-1,2.1283102E0,8.917421E0,3.4193463E0,3.9343512E0,4.3885098E0,6.3895035E-1,0E0,0E0,0E0,0E0,0E0,0E0,0E0,0E0,0E0,0E0,0E0,0E0,0E0,0E0],"parents":[2147483647,0,0,1,1,2,2,3,3,4,4,5,5,6,6,8,8,9,9,10,10,11,11,12,12,13,13,14,14],"right_children":[2,4,6,8,10,12,14,-1,16,18,20,22,24,26,28,-1,-1,-1,-1,-1,-1,-1,-1,-1,-1,-1,-1,-1,-1],"split_conditions":[-3.1973413E-1,-6.987547E-1,1.8608141E-1,1.6398921E0,-3.4467444E-1,-7.0985615E-1,4.608868E-1,-5.367574E-2,-1.0016959E0,-1.0282335E0,-3.2212135E-1,-3.5548672E-1,-8.232512E-1,4.8776105E-1,2.4563372E0,2.7850706E-3,-3.836888E-2,-3.5099958E-3,-5.5523824E-2,7.017175E-2,-2.0316593E-2,-2.0908294E-2,5.6776322E-2,-3.0643204E-2,3.672848E-3,3.6320943E-2,-2.7794579E-2,5.3578474E-2,2.0001749E-2],"split_indices":[1,1,1,13,6,11,1,0,17,2,22,19,12,17,0,0,0,0,0,0,0,0,0,0,0,0,0,0,0],"split_type":[0,0,0,0,0,0,0,0,0,0,0,0,0,0,0,0,0,0,0,0,0,0,0,0,0,0,0,0,0],"sum_hessian":[1.7690361E2,5.9369255E1,1.1753435E2,2.1076973E1,3.8292282E1,7.6550804E1,4.0983543E1,1.781071E1,3.266264E0,1.4107283E1,2.4185E1,8.261688E0,6.8289116E1,1.606779E1,2.4915754E1,1.5597183E0,1.7065456E0,2.4968855E0,1.1610396E1,2.1017873E0,2.2083212E1,1.1761925E0,7.085496E0,8.689113E0,5.9600006E1,1.3576928E1,2.490861E0,2.1684607E1,3.231148E0],"tree_param":{"num_deleted":"0","num_feature":"25","num_nodes":"29","size_leaf_vector":"1"}},{"base_weights":[1.0740925E-4,-3.7421635E-1,6.050975E-1,-8.1145495E-1,-1.23796E-1,2.3414372E-1,8.492672E-1,-9.373506E-1,-3.751271E-1,-2.1704017E-1,5.415766E-1,6.072567E-1,-1.00988686E-1,-4.329744E-4,8.8298327E-1,-5.2351367E-2,-2.3155726E-2,1.2972921E-2,-3.4351107E-2,1.9235732E-2,-1.5419108E-2,5.8115374E-2,-7.6304125E-3,4.4068467E-2,-5.204501E-3,-4.240233E-2,9.239909E-3,4.7038034E-2,1.2416064E-2],"categories":[],"categories_nodes":[],"categories_segments":[],"categories_sizes":[],"default_left":[0,0,0,0,0,0,0,0,0,0,0,0,0,0,0,0,0,0,0,0,0,0,0,0,0,0,0,0,0],"id":34,"left_children":[1,3,5,7,9,11,13,15,17,19,21,23,25,-1,27,-1,-1,-1,-1,-1,-1,-1,-1,-1,-1,-1,-1,-1,-1],"loss_changes":[3.9889854E1,1.1814214E1,5.899374E0,1.8152637E0,4.483409E0,3.575747E0,1.1710949E0,1.0727081E0,2.2565265E0,3.550351E0,4.0276766E0,2.7127705E0,3.5009606E0,0E0,1.1858616E0,0E0,0E0,0E0,0E0,0E0,0E0,0E0,0E0,0E0,0E0,0E0,0E0,0E0,0E0],"parents":[2147483647,0,0,1,1,2,2,3,3,4,4,5,5,6,6,7,7,8,8,9,9,10,10,11,11,12,12,14,14],"right_children":[2,4,6,8,10,12,14,16,18,20,22,24,26,-1,28,-1,-1,-1,-1,-1,-1,-1,-1,-1,-1,-1,-1,-1,-1],"split_conditions":[-5.8972873E-2,-4.356487E-1,1.6305737E-1,-3.9176923E-1,2.800298E-1,-1.9809178E-1,-4.49992E-1,1.3668095E-1,-5.7809263E-1,-5.1453245E-1,4.786193E-1,8.2734145E-2,-5.5891955E-1,-4.329744E-4,1.2408888E0,-5.2351367E-2,-2.3155726E-2,1.2972921E-2,-3.4351107E-2,1.9235732E-2,-1.5419108E-2,5.8115374E-2,-7.6304125E-3,4.4068467E-2,-5.204501E-3,-4.240233E-2,9.239909E-3,4.7038034E-2,1.2416064E-2],"split_indices":[1,1,17,19,12,9,23,13,13,17,0,10,12,0,14,0,0,0,0,0,0,0,0,0,0,0,0,0,0],"split_type":[0,0,0,0,0,0,0,0,0,0,0,0,0,0,0,0,0,0,0,0,0,0,0,0,0,0,0,0,0],"sum_hessian":[1.7414369E2,1.0781629E2,6.632741E1,3.8446907E1,6.9369385E1,2.710587E1,3.9221542E1,2.8946552E1,9.500353E0,6.1433945E1,7.935439E0,1.2441917E1,1.4663951E1,1.511204E0,3.7710335E1,2.2528547E1,6.418005E0,3.1860662E0,6.314287E0,7.672992E0,5.3760952E1,3.8333554E0,4.1020837E0,8.808577E0,3.633341E0,3.513117E0,1.1150833E1,3.412171E1,3.588623E0],"tree_param":{"num_deleted":"0","num_feature":"25","num_nodes":"29","size_leaf_vector":"1"}},{"base_weights":[2.685482E-4,-6.548817E-1,3.281938E-1,-9.813488E-1,-4.6153653E-1,1.4190921E-1,9.5925415E-1,-5.2848917E-2,-4.290195E-1,-9.208807E-1,-1.7453659E-1,9.21386E-1,3.3410985E-2,1.0258332E0,2.1013072E-1,3.4818824E-3,-3.7325524E-2,-3.0648573E-3,-5.466321E-2,6.631067E-2,-1.889612E-2,-2.0061051E-2,5.5903353E-2,4.1523874E-2,-2.575146E-3,5.3138535E-2,1.9574946E-2,-2.0427689E-2,3.2310788E-2],"categories":[],"categories_nodes":[],"categories_segments":[],"categories_sizes":[],"default_left":[0,0,0,0,0,0,0,0,0,0,0,0,0,0,0,0,0,0,0,0,0,0,0,0,0,0,0,0,0],"id":35,"left_children":[1,3,5,7,9,11,13,-1,15,17,19,21,23,25,27,-1,-1,-1,-1,-1,-1,-1,-1,-1,-1,-1,-1,-1,-1],"loss_changes":[3.7289043E1,3.2015648E0,1.3461564E1,4.0900993E-1,4.881819E0,7.6212845E0,1.0906429E0,0E0,7.121526E-1,2.0778303E0,8.063333E0,3.3146677E0,5.488625E0,1.4143372E-1,1.1800358E0,0E0,0E0,0E0,0E0,0E0,0E0,0E0,0E0,0E0,0E0,0E0,0E0,0E0,0E0],"parents":[2147483647,0,0,1,1,2,2,3,3,4,4,5,5,6,6,8,8,9,9,10,10,11,11,12,12,13,13,14,14],"right_children":[2,4,6,8,10,12,14,-1,16,18,20,22,24,26,28,-1,-1,-1,-1,-1,-1,-1,-1,-1,-1,-1,-1,-1,-1],"split_conditions":[-3.1973413E-1,-6.987547E-1,4.3190753E-1,1.6398921E0,-3.4467444E-1,-7.0985615E-1,1.2412932E0,-5.2848917E-2,-1.0016959E0,-1.0282335E0,-3.2212135E-1,-3.5548672E-1,-9.7929215E-1,2.6006522E0,1.8730887E0,3.4818824E-3,-3.7325524E-2,-3.0648573E-3,-5.466321E-2,6.631067E-2,-1.889612E-2,-2.0061051E-2,5.5903353E-2,4.1523874E-2,-2.575146E-3,5.3138535E-2,1.9574946E-2,-2.0427689E-2,3.2310788E-2],"split_indices":[1,1,1,13,6,11,14,0,17,2,22,19,9,24,15,0,0,0,0,0,0,0,0,0,0,0,0,0,0],"split_type":[0,0,0,0,0,0,0,0,0,0,0,0,0,0,0,0,0,0,0,0,0,0,0,0,0,0,0,0,0],"sum_hessian":[1.715659E2,5.689679E1,1.1466911E2,1.964693E1,3.724986E1,8.9480095E1,2.5189024E1,1.6477077E1,3.1698525E0,1.3474785E1,2.3775072E1,1.0017786E1,7.94623E1,2.2793823E1,2.3952014E0,1.5367955E0,1.6330571E0,2.477319E0,1.0997466E1,2.1786323E0,2.1596441E1,1.1622343E0,8.855552E0,6.8050165E0,7.265729E1,2.0901321E1,1.8925015E0,1.0163761E0,1.3788252E0],"tree_param":{"num_deleted":"0","num_feature":"25","num_nodes":"29","size_leaf_vector":"1"}},{"base_weights":[6.178824E-4,-6.3801146E-1,3.168574E-1,-7.329344E-1,-3.585176E-2,1.3622689E-1,9.4877326E-1,-5.3178716E-1,-5.5878885E-2,5.566439E-2,-3.5275498E-1,8.976793E-1,3.229812E-2,1.0170586E0,2.0453246E-1,-3.4754563E-2,5.751557E-2,-3.473046E-2,1.781446E-2,-1.9594744E-2,5.464244E-2,4.041839E-2,-2.4469127E-3,5.275519E-2,1.912833E-2,-1.9759875E-2,3.185576E-2],"categories":[],"categories_nodes":[],"categories_segments":[],"categories_sizes":[],"default_left":[0,0,0,0,0,0,0,0,0,0,0,0,0,0,0,0,0,0,0,0,0,0,0,0,0,0,0],"id":36,"left_children":[1,3,5,7,9,11,13,15,-1,-1,17,19,21,23,25,-1,-1,-1,-1,-1,-1,-1,-1,-1,-1,-1,-1],"loss_changes":[3.455292E1,3.212471E0,1.2931564E1,3.1886978E0,3.5854495E0,7.105631E0,1.0761757E0,1.0142844E1,0E0,0E0,2.0972736E0,3.1439667E0,5.106214E0,1.4899635E-1,1.1274667E0,0E0,0E0,0E0,0E0,0E0,0E0,0E0,0E0,0E0,0E0,0E0,0E0],"parents":[2147483647,0,0,1,1,2,2,3,3,4,4,5,5,6,6,7,7,10,10,11,11,12,12,13,13,14,14],"right_children":[2,4,6,8,10,12,14,16,-1,-1,18,20,22,24,26,-1,-1,-1,-1,-1,-1,-1,-1,-1,-1,-1,-1],"split_conditions":[-3.1973413E-1,3.1060752E-1,4.3190753E-1,-1.6850068E-1,-6.292824E-1,-7.0985615E-1,1.2412932E0,-2.0202924E-1,-5.5878885E-2,5.566439E-2,2.592879E0,-3.5548672E-1,-9.7929215E-1,2.6006522E0,1.8730887E0,-3.4754563E-2,5.751557E-2,-3.473046E-2,1.781446E-2,-1.9594744E-2,5.464244E-2,4.041839E-2,-2.4469127E-3,5.275519E-2,1.912833E-2,-1.9759875E-2,3.185576E-2],"split_indices":[1,2,1,22,11,11,14,3,0,0,24,19,9,24,15,0,0,0,0,0,0,0,0,0,0,0,0],"split_type":[0,0,0,0,0,0,0,0,0,0,0,0,0,0,0,0,0,0,0,0,0,0,0,0,0,0,0],"sum_hessian":[1.6908708E2,5.566235E1,1.1342473E2,4.789511E1,7.767242E0,8.9155556E1,2.4269169E1,3.3013443E1,1.4881665E1,1.1357645E0,6.6314774E0,9.789994E0,7.936556E1,2.1893805E1,2.3753645E0,3.0626852E1,2.3865912E0,4.488013E0,2.1434648E0,1.1543962E0,8.635598E0,6.6723423E0,7.269322E1,2.002987E1,1.8639349E0,1.0315933E0,1.3437712E0],"tree_param":{"num_deleted":"0","num_feature":"25","num_nodes":"27","size_leaf_vector":"1"}},{"base_weights":[1.5652442E-3,-3.3998027E-1,5.6386745E-1,-7.6700824E-1,-1.1245286E-1,3.3482465E-1,9.6686345E-1,-9.0251E-1,-3.2077816E-1,-2.0264459E-1,5.2703863E-1,4.350644E-1,-4.6986768E-1,5.2220076E-2,3.3904698E-1,-5.1052537E-2,-2.0829162E-2,1.4616305E-2,-3.1970933E-2,1.9594148E-2,-1.4670262E-2,5.64336E-2,-7.077262E-3,2.5042072E-2,-2.2807913E-2,-5.7554495E-2,2.739579E-2,3.6698464E-2,-1.916864E-2],"categories":[],"categories_nodes":[],"categories_segments":[],"categories_sizes":[],"default_left":[0,0,0,0,0,0,0,0,0,0,0,0,0,0,0,0,0,0,0,0,0,0,0,0,0,0,0,0,0],"id":37,"left_children":[1,3,5,7,9,11,13,15,17,19,21,23,25,-1,27,-1,-1,-1,-1,-1,-1,-1,-1,-1,-1,-1,-1,-1,-1],"loss_changes":[3.2373974E1,1.0103277E1,5.5557823E0,1.9043274E0,4.1205544E0,3.603867E0,7.437992E-1,1.1460323E0,2.1410427E0,3.444888E0,3.7314131E0,2.4558125E0,4.200765E0,0E0,1.4111509E0,0E0,0E0,0E0,0E0,0E0,0E0,0E0,0E0,0E0,0E0,0E0,0E0,0E0,0E0],"parents":[2147483647,0,0,1,1,2,2,3,3,4,4,5,5,6,6,7,7,8,8,9,9,10,10,11,11,12,12,14,14],"right_children":[2,4,6,8,10,12,14,16,18,20,22,24,26,-1,28,-1,-1,-1,-1,-1,-1,-1,-1,-1,-1,-1,-1,-1,-1],"split_conditions":[-5.8972873E-2,-4.356487E-1,4.608868E-1,-3.9176923E-1,2.800298E-1,5.958626E-1,2.4563372E0,1.3668095E-1,-5.7809263E-1,-5.1453245E-1,4.786193E-1,4.8776105E-1,1.0589421E0,5.2220076E-2,9.4540954E-1,-5.1052537E-2,-2.0829162E-2,1.4616305E-2,-3.1970933E-2,1.9594148E-2,-1.4670262E-2,5.64336E-2,-7.077262E-3,2.5042072E-2,-2.2807913E-2,-5.7554495E-2,2.739579E-2,3.6698464E-2,-1.916864E-2],"split_indices":[1,1,1,19,12,11,0,13,13,17,0,17,11,0,17,0,0,0,0,0,0,0,0,0,0,0,0,0,0],"split_type":[0,0,0,0,0,0,0,0,0,0,0,0,0,0,0,0,0,0,0,0,0,0,0,0,0,0,0,0,0],"sum_hessian":[1.665708E2,1.03873085E2,6.2697716E1,3.528272E1,6.859036E1,4.114423E1,2.1553486E1,2.6280031E1,9.002689E0,6.0711002E1,7.87936E0,3.6995125E1,4.1491065E0,1.8593554E1,2.9599314E0,2.0241034E1,6.0389977E0,3.1070054E0,5.8956842E0,7.6012506E0,5.3109753E1,3.78512E0,4.0942397E0,3.4860275E1,2.1348479E0,2.4070466E0,1.7420601E0,1.903413E0,1.0565183E0],"tree_param":{"num_deleted":"0","num_feature":"25","num_nodes":"29","size_leaf_vector":"1"}},{"base_weights":[1.5851257E-3,-6.081718E-1,2.9751575E-1,-9.523436E-1,-4.148661E-1,1.2780981E-1,9.2859906E-1,-5.1781822E-2,-3.864697E-1,-8.8712656E-1,-1.300132E-1,8.7809205E-1,2.7467785E-2,1.0010986E0,1.759934E-1,-3.5642248E-2,6.87788E-3,-1.490257E-3,-5.348314E-2,6.477678E-2,-1.6709885E-2,-1.8800711E-2,5.3549137E-2,3.9228123E-2,-2.509363E-3,5.2074075E-2,1.8202921E-2,-1.988302E-2,3.0679623E-2],"categories":[],"categories_nodes":[],"categories_segments":[],"categories_sizes":[],"default_left":[0,0,0,0,0,0,0,0,0,0,0,0,0,0,0,0,0,0,0,0,0,0,0,0,0,0,0,0,0],"id":38,"left_children":[1,3,5,7,9,11,13,-1,15,17,19,21,23,25,27,-1,-1,-1,-1,-1,-1,-1,-1,-1,-1,-1,-1,-1,-1],"loss_changes":[2.9992908E1,3.218254E0,1.1865819E1,4.8404312E-1,4.801531E0,6.7023277E0,1.1090546E0,0E0,7.826127E-1,2.0932283E0,7.4101076E0,2.9444742E0,4.733307E0,1.6807365E-1,1.0681351E0,0E0,0E0,0E0,0E0,0E0,0E0,0E0,0E0,0E0,0E0,0E0,0E0,0E0,0E0],"parents":[2147483647,0,0,1,1,2,2,3,3,4,4,5,5,6,6,8,8,9,9,10,10,11,11,12,12,13,13,14,14],"right_children":[2,4,6,8,10,12,14,-1,16,18,20,22,24,26,28,-1,-1,-1,-1,-1,-1,-1,-1,-1,-1,-1,-1,-1,-1],"split_conditions":[-3.1973413E-1,-6.987547E-1,4.3190753E-1,1.6398921E0,-3.4467444E-1,-7.0985615E-1,1.2412932E0,-5.1781822E-2,-9.189639E-1,-1.0282335E0,-3.2212135E-1,-3.5548672E-1,-9.7929215E-1,2.6006522E0,1.8730887E0,-3.5642248E-2,6.87788E-3,-1.490257E-3,-5.348314E-2,6.477678E-2,-1.6709885E-2,-1.8800711E-2,5.3549137E-2,3.9228123E-2,-2.509363E-3,5.2074075E-2,1.8202921E-2,-1.988302E-2,3.0679623E-2],"split_indices":[1,1,1,13,6,11,14,0,15,2,22,19,9,24,15,0,0,0,0,0,0,0,0,0,0,0,0,0,0],"split_type":[0,0,0,0,0,0,0,0,0,0,0,0,0,0,0,0,0,0,0,0,0,0,0,0,0,0,0,0,0],"sum_hessian":[1.6421289E2,5.33113E1,1.1090159E2,1.7761383E1,3.5549915E1,8.8346634E1,2.2554956E1,1.4758827E1,3.002556E0,1.2579652E1,2.2970264E1,9.507288E0,7.883934E1,2.0271954E1,2.2830043E0,1.6281744E0,1.3743818E0,2.4124296E0,1.0167222E1,2.2082264E0,2.0762037E1,1.1408062E0,8.366482E0,6.4874125E0,7.235193E1,1.8466463E1,1.8054895E0,1.0274179E0,1.2555865E0],"tree_param":{"num_deleted":"0","num_feature":"25","num_nodes":"29","size_leaf_vector":"1"}},{"base_weights":[1.9158258E-3,-6.4791226E-1,2.654795E-1,-7.374271E-1,3.7150764E-1,4.9134966E-2,8.181307E-1,-7.7717113E-1,3.938656E-3,-1.8485636E-2,4.50598E-2,6.439517E-1,-4.0746845E-2,-1.7123288E-2,8.674566E-1,-4.67042E-3,-4.1672196E-2,4.361717E-2,-1.1993736E-2,-7.4155875E-3,2.0441303E-2,4.7216583E-2,5.060228E-3],"categories":[],"categories_nodes":[],"categories_segments":[],"categories_sizes":[],"default_left":[0,0,0,0,0,0,0,0,0,0,0,0,0,0,0,0,0,0,0,0,0,0,0],"id":39,"left_children":[1,3,5,7,9,11,13,15,-1,-1,-1,17,19,-1,21,-1,-1,-1,-1,-1,-1,-1,-1],"loss_changes":[2.8083696E1,4.5916824E0,1.3907078E1,1.4830723E0,2.0938263E0,4.565147E0,2.1721764E0,1.5338955E0,0E0,0E0,0E0,2.4709196E0,3.672685E0,0E0,1.7718582E0,0E0,0E0,0E0,0E0,0E0,0E0,0E0,0E0],"parents":[2147483647,0,0,1,1,2,2,3,3,4,4,5,5,6,6,7,7,11,11,12,12,14,14],"right_children":[2,4,6,8,10,12,14,16,-1,-1,-1,18,20,-1,22,-1,-1,-1,-1,-1,-1,-1,-1],"split_conditions":[-3.8769493E-1,-1.6414095E-1,2.3680346E-1,8.1047577E-1,-2.3640595E-1,-7.0985615E-1,-8.3304787E-1,-9.3509656E-1,3.938656E-3,-1.8485636E-2,4.50598E-2,-3.751516E-2,1.3333756E-1,-1.7123288E-2,1.2408888E0,-4.67042E-3,-4.1672196E-2,4.361717E-2,-1.1993736E-2,-7.4155875E-3,2.0441303E-2,4.7216583E-2,5.060228E-3],"split_indices":[15,19,1,14,12,11,13,8,0,0,0,12,12,0,14,0,0,0,0,0,0,0,0],"split_type":[0,0,0,0,0,0,0,0,0,0,0,0,0,0,0,0,0,0,0,0,0,0,0],"sum_hessian":[1.6196791E2,4.631584E1,1.1565207E2,4.283145E1,3.4843907E0,8.389778E1,3.1754284E1,4.0888256E1,1.943194E0,1.5780969E0,1.906294E0,1.020422E1,7.3693565E1,1.0522757E0,3.0702007E1,3.311432E0,3.7576824E1,8.11913E0,2.0850902E0,6.00065E1,1.3687063E1,2.7691433E1,3.0105734E0],"tree_param":{"num_deleted":"0","num_feature":"25","num_nodes":"23","size_leaf_vector":"1"}},{"base_weights":[2.270403E-3,-3.078573E-1,5.2389646E-1,-7.699055E-1,-1.1646383E-1,3.053308E-1,9.4016707E-1,-8.7572473E-1,-1.09234735E-1,-1.9326118E-1,4.3680012E-1,3.962936E-1,-5.211977E-1,5.128289E-2,2.9320058E-1,7.0858956E-4,-4.6703197E-2,-3.7902303E-2,2.1665012E-2,-3.2104775E-2,-2.940362E-3,5.098595E-2,-1.1263647E-2,2.582418E-2,-6.2000505E-3,-6.6966675E-2,2.6039718E-2,3.5153683E-2,-2.025674E-2],"categories":[],"categories_nodes":[],"categories_segments":[],"categories_sizes":[],"default_left":[0,0,0,0,0,0,0,0,0,0,0,0,0,0,0,0,0,0,0,0,0,0,0,0,0,0,0,0,0],"id":40,"left_children":[1,3,5,7,9,11,13,15,17,19,21,23,25,-1,27,-1,-1,-1,-1,-1,-1,-1,-1,-1,-1,-1,-1,-1,-1],"loss_changes":[2.6184046E1,8.8874235E0,5.2036514E0,1.9705753E0,3.1843402E0,3.2930276E0,8.21867E-1,1.3283806E0,2.1668935E0,3.8702528E0,3.7801151E0,2.4122462E0,4.535447E0,0E0,1.3637078E0,0E0,0E0,0E0,0E0,0E0,0E0,0E0,0E0,0E0,0E0,0E0,0E0,0E0,0E0],"parents":[2147483647,0,0,1,1,2,2,3,3,4,4,5,5,6,6,7,7,8,8,9,9,10,10,11,11,12,12,14,14],"right_children":[2,4,6,8,10,12,14,16,18,20,22,24,26,-1,28,-1,-1,-1,-1,-1,-1,-1,-1,-1,-1,-1,-1,-1,-1],"split_conditions":[-5.8972873E-2,-5.0128603E-1,4.608868E-1,6.0362315E-1,2.800298E-1,7.451667E-1,2.4563372E0,-1.0387727E0,-9.189639E-1,-3.972201E-1,1.3870628E-1,8.008562E-2,1.0589421E0,5.128289E-2,9.4540954E-1,7.0858956E-4,-4.6703197E-2,-3.7902303E-2,2.1665012E-2,-3.2104775E-2,-2.940362E-3,5.098595E-2,-1.1263647E-2,2.582418E-2,-6.2000505E-3,-6.6966675E-2,2.6039718E-2,3.5153683E-2,-2.025674E-2],"split_indices":[1,1,1,8,12,11,0,0,15,15,11,8,11,0,17,0,0,0,0,0,0,0,0,0,0,0,0,0,0],"split_type":[0,0,0,0,0,0,0,0,0,0,0,0,0,0,0,0,0,0,0,0,0,0,0,0,0,0,0,0,0],"sum_hessian":[1.5986203E2,1.0051288E2,5.9349148E1,2.8554955E1,7.1957924E1,4.0052704E1,1.9296444E1,2.4332178E1,4.222777E0,6.3758446E1,8.199479E0,3.6550686E1,3.5020177E0,1.6527193E1,2.7692504E0,1.5435895E0,2.2788588E1,1.742141E0,2.4806356E0,1.3826665E1,4.9931778E1,4.0731254E0,4.1263537E0,2.9697725E1,6.8529596E0,1.8018833E0,1.7001345E0,1.740762E0,1.0284884E0],"tree_param":{"num_deleted":"0","num_feature":"25","num_nodes":"29","size_leaf_vector":"1"}},{"base_weights":[2.1212853E-3,-5.024155E-1,3.0394438E-1,-9.26518E-1,-3.2501844E-1,1.4927186E-1,9.3095106E-1,-5.0826322E-2,-3.5011864E-1,-4.608006E-1,4.693165E-1,4.6276446E-2,5.7210047E-2,5.0948985E-2,2.8527448E-1,8.278601E-3,-3.514741E-2,-1.421758E-2,-4.422222E-2,6.1175525E-2,-1.504493E-2,4.162822E-2,-1.1694693E-3,3.4884077E-2,-2.0419464E-2],"categories":[],"categories_nodes":[],"categories_segments":[],"categories_sizes":[],"default_left":[0,0,0,0,0,0,0,0,0,0,0,0,0,0,0,0,0,0,0,0,0,0,0,0,0],"id":41,"left_children":[1,3,5,7,9,11,13,-1,15,17,19,-1,21,-1,23,-1,-1,-1,-1,-1,-1,-1,-1,-1,-1],"loss_changes":[2.4299257E1,4.192522E0,9.543322E0,5.2996635E-1,4.924581E0,5.755128E0,8.2129097E-1,0E0,8.135574E-1,2.5730247E0,4.357797E0,0E0,4.6266065E0,0E0,1.3537103E0,0E0,0E0,0E0,0E0,0E0,0E0,0E0,0E0,0E0,0E0],"parents":[2147483647,0,0,1,1,2,2,3,3,4,4,5,5,6,6,8,8,9,9,10,10,12,12,14,14],"right_children":[2,4,6,8,10,12,14,-1,16,18,20,-1,22,-1,24,-1,-1,-1,-1,-1,-1,-1,-1,-1,-1],"split_conditions":[-2.706119E-1,-6.987547E-1,4.608868E-1,1.6398921E0,2.8253415E-1,-9.7929215E-1,2.4563372E0,-5.0826322E-2,-1.0016959E0,-1.6850068E-1,-2.5796595E-1,4.6276446E-2,-7.215506E-1,5.0948985E-2,6.655102E-1,8.278601E-3,-3.514741E-2,-1.421758E-2,-4.422222E-2,6.1175525E-2,-1.504493E-2,4.162822E-2,-1.1694693E-3,3.4884077E-2,-2.0419464E-2],"split_indices":[1,1,1,13,9,9,0,0,17,22,15,0,11,0,23,0,0,0,0,0,0,0,0,0,0],"split_type":[0,0,0,0,0,0,0,0,0,0,0,0,0,0,0,0,0,0,0,0,0,0,0,0,0],"sum_hessian":[1.575659E2,5.872866E1,9.883724E1,1.6075108E1,4.2653553E1,8.027319E1,1.8564043E1,1.3243476E1,2.8316317E0,3.6785416E1,5.8681393E0,7.5509467E0,7.272225E1,1.5827972E1,2.7360709E0,1.3659335E0,1.465698E0,2.7148983E1,9.636432E0,2.6675477E0,3.2005916E0,5.9692564E0,6.675299E1,1.712273E0,1.0237978E0],"tree_param":{"num_deleted":"0","num_feature":"25","num_nodes":"25","size_leaf_vector":"1"}},{"base_weights":[2.4548913E-3,-5.519633E-1,2.619196E-1,-9.1659784E-1,-3.6284125E-1,1.1240531E-1,8.890262E-1,-5.0459176E-2,-3.4229583E-1,-8.519937E-1,-7.866918E-2,8.596805E-1,2.5526408E-2,9.70738E-1,1.2247648E-1,8.011161E-3,-3.462305E-2,1.309038E-2,-4.905347E-2,6.432004E-2,-1.4280881E-2,-1.9150851E-2,5.4202087E-2,3.7693333E-2,-2.3962185E-3,5.084006E-2,1.5862409E-2,-2.0950107E-2,2.8773874E-2],"categories":[],"categories_nodes":[],"categories_segments":[],"categories_sizes":[],"default_left":[0,0,0,0,0,0,0,0,0,0,0,0,0,0,0,0,0,0,0,0,0,0,0,0,0,0,0,0,0],"id":42,"left_children":[1,3,5,7,9,11,13,-1,15,17,19,21,23,25,27,-1,-1,-1,-1,-1,-1,-1,-1,-1,-1,-1,-1,-1,-1],"loss_changes":[2.2662243E1,3.1309261E0,9.961523E0,5.317793E-1,4.7601185E0,5.677911E0,1.1660423E0,0E0,7.802639E-1,2.076807E0,6.8839765E0,2.9561458E0,4.298857E0,2.3111153E-1,1.0065547E0,0E0,0E0,0E0,0E0,0E0,0E0,0E0,0E0,0E0,0E0,0E0,0E0,0E0,0E0],"parents":[2147483647,0,0,1,1,2,2,3,3,4,4,5,5,6,6,8,8,9,9,10,10,11,11,12,12,13,13,14,14],"right_children":[2,4,6,8,10,12,14,-1,16,18,20,22,24,26,28,-1,-1,-1,-1,-1,-1,-1,-1,-1,-1,-1,-1,-1,-1],"split_conditions":[-3.1973413E-1,-6.987547E-1,4.3190753E-1,1.6398921E0,-3.4467444E-1,-7.215506E-1,1.2412932E0,-5.0459176E-2,-1.0016959E0,-1.3824165E0,-3.2212135E-1,-3.5548672E-1,-9.7929215E-1,2.6006522E0,1.8730887E0,8.011161E-3,-3.462305E-2,1.309038E-2,-4.905347E-2,6.432004E-2,-1.4280881E-2,-1.9150851E-2,5.4202087E-2,3.7693333E-2,-2.3962185E-3,5.084006E-2,1.5862409E-2,-2.0950107E-2,2.8773874E-2],"split_indices":[1,1,1,13,6,11,14,0,17,14,22,19,9,24,15,0,0,0,0,0,0,0,0,0,0,0,0,0,0],"split_type":[0,0,0,0,0,0,0,0,0,0,0,0,0,0,0,0,0,0,0,0,0,0,0,0,0,0,0,0,0],"sum_hessian":[1.5553366E2,4.9224518E1,1.0630914E2,1.5497726E1,3.372679E1,8.679483E1,1.9514313E1,1.2694034E1,2.8036935E0,1.1659258E1,2.2067533E1,8.113415E0,7.868141E1,1.7393814E1,2.120499E0,1.3741283E0,1.4295652E0,1.1040478E0,1.055521E1,2.218415E0,1.9849117E1,1.132661E0,6.9807534E0,6.3592577E0,7.232216E1,1.5729139E1,1.6646738E0,1.000108E0,1.120391E0],"tree_param":{"num_deleted":"0","num_feature":"25","num_nodes":"29","size_leaf_vector":"1"}},{"base_weights":[2.8825647E-3,-2.7963266E-1,4.8667186E-1,-7.319097E-1,-1.04827896E-1,1.527545E-1,7.462658E-1,-8.434454E-1,-7.514885E-2,-1.7963526E-1,4.2953774E-1,5.0976956E-1,-1.4140534E-1,-6.838163E-3,7.8857136E-1,2.7190766E-3,-4.5359317E-2,-3.6406875E-2,2.1798912E-2,-3.0341802E-2,-2.7265863E-3,4.9285837E-2,-1.0152745E-2,4.0840548E-2,-1.3342834E-2,-4.1667443E-2,6.8931575E-3,-5.9067337E-3,4.1645173E-2],"categories":[],"categories_nodes":[],"categories_segments":[],"categories_sizes":[],"default_left":[0,0,0,0,0,0,0,0,0,0,0,0,0,0,0,0,0,0,0,0,0,0,0,0,0,0,0,0,0],"id":43,"left_children":[1,3,5,7,9,11,13,15,17,19,21,23,25,-1,27,-1,-1,-1,-1,-1,-1,-1,-1,-1,-1,-1,-1,-1,-1],"loss_changes":[2.1261808E1,7.6883097E0,4.8571844E0,1.9299326E0,2.955527E0,2.8384106E0,1.3035698E0,1.374939E0,2.0023415E0,3.3802845E0,3.4149451E0,3.1072037E0,3.056876E0,0E0,1.3321095E0,0E0,0E0,0E0,0E0,0E0,0E0,0E0,0E0,0E0,0E0,0E0,0E0,0E0,0E0],"parents":[2147483647,0,0,1,1,2,2,3,3,4,4,5,5,6,6,7,7,8,8,9,9,10,10,11,11,12,12,14,14],"right_children":[2,4,6,8,10,12,14,16,18,20,22,24,26,-1,28,-1,-1,-1,-1,-1,-1,-1,-1,-1,-1,-1,-1,-1,-1],"split_conditions":[-5.8972873E-2,-5.0128603E-1,1.6305737E-1,6.0362315E-1,2.800298E-1,-1.9809178E-1,-6.875324E-1,-1.0387727E0,-9.189639E-1,-3.972201E-1,1.3870628E-1,8.2734145E-2,-5.5891955E-1,-6.838163E-3,-4.49992E-1,2.7190766E-3,-4.5359317E-2,-3.6406875E-2,2.1798912E-2,-3.0341802E-2,-2.7265863E-3,4.9285837E-2,-1.0152745E-2,4.0840548E-2,-1.3342834E-2,-4.1667443E-2,6.8931575E-3,-5.9067337E-3,4.1645173E-2],"split_indices":[1,1,17,8,12,9,13,0,15,15,11,10,12,0,23,0,0,0,0,0,0,0,0,0,0,0,0,0,0],"split_type":[0,0,0,0,0,0,0,0,0,0,0,0,0,0,0,0,0,0,0,0,0,0,0,0,0,0,0,0,0],"sum_hessian":[1.535658E2,9.721677E1,5.634903E1,2.6211649E1,7.100512E1,2.5341078E1,3.1007952E1,2.2163445E1,4.048203E0,6.2867897E1,8.137219E0,1.1116396E1,1.4224683E1,1.3155774E0,2.9692375E1,1.4789149E0,2.068453E1,1.5910238E0,2.457179E0,1.3368108E1,4.949979E1,4.0330887E0,4.104131E0,7.929645E0,3.1867511E0,3.5197518E0,1.070493E1,1.306491E0,2.8385883E1],"tree_param":{"num_deleted":"0","num_feature":"25","num_nodes":"29","size_leaf_vector":"1"}},{"base_weights":[2.6020866E-3,-2.5335103E-1,5.059303E-1,-5.5208796E-1,2.1418482E-3,2.9037723E-1,9.052834E-1,-6.485935E-1,3.1692266E-2,-6.327295E-1,1.1209675E-1,4.2864442E-1,-6.547767E-1,5.011032E-2,2.4236304E-1,-2.1769421E-2,-5.3529143E-2,5.5388164E-2,-1.6574811E-2,7.958613E-3,-4.678373E-2,-9.884418E-3,2.275327E-2,-4.6284427E-4,3.6493633E-2,-5.0136596E-2,1.731882E-2,3.3195607E-2,-1.9925471E-2],"categories":[],"categories_nodes":[],"categories_segments":[],"categories_sizes":[],"default_left":[0,0,0,0,0,0,0,0,0,0,0,0,0,0,0,0,0,0,0,0,0,0,0,0,0,0,0,0,0],"id":44,"left_children":[1,3,5,7,9,11,13,15,17,19,21,23,25,-1,27,-1,-1,-1,-1,-1,-1,-1,-1,-1,-1,-1,-1,-1,-1],"loss_changes":[1.9777752E1,7.7692056E0,4.191839E0,2.66399E0,3.9699643E0,4.8652253E0,8.923416E-1,3.1607056E0,3.3411925E0,2.163156E0,5.238497E0,4.1234236E0,2.044776E0,0E0,1.2297715E0,0E0,0E0,0E0,0E0,0E0,0E0,0E0,0E0,0E0,0E0,0E0,0E0,0E0,0E0],"parents":[2147483647,0,0,1,1,2,2,3,3,4,4,5,5,6,6,7,7,8,8,9,9,10,10,11,11,12,12,14,14],"right_children":[2,4,6,8,10,12,14,16,18,20,22,24,26,-1,28,-1,-1,-1,-1,-1,-1,-1,-1,-1,-1,-1,-1,-1,-1],"split_conditions":[-1.0761383E-2,-3.1973413E-1,4.608868E-1,3.1060752E-1,-3.972201E-1,5.762366E-1,2.4563372E0,-1.6850068E-1,-1.5828648E-1,-4.8640883E-1,-1.8438394E-1,-1.4718924E-1,5.386983E-1,5.011032E-2,9.455711E-1,-2.1769421E-2,-5.3529143E-2,5.5388164E-2,-1.6574811E-2,7.958613E-3,-4.678373E-2,-9.884418E-3,2.275327E-2,-4.6284427E-4,3.6493633E-2,-5.0136596E-2,1.731882E-2,3.3195607E-2,-1.9925471E-2],"split_indices":[15,1,1,2,15,21,0,22,12,10,24,23,10,0,1,0,0,0,0,0,0,0,0,0,0,0,0,0,0],"split_type":[0,0,0,0,0,0,0,0,0,0,0,0,0,0,0,0,0,0,0,0,0,0,0,0,0,0,0,0,0],"sum_hessian":[1.5152516E2,1.00775375E2,5.074978E1,4.5921013E1,5.4854362E1,3.4081318E1,1.666846E1,3.9311375E1,6.609638E0,7.3959956E0,4.7458366E1,3.0208569E1,3.8727493E0,1.4095766E1,2.5726945E0,2.7466175E1,1.1845201E1,1.1505705E0,5.459068E0,2.1777966E0,5.2181993E0,2.5158052E1,2.2300316E1,1.2706359E1,1.750221E1,2.872739E0,1.0000103E0,1.5302112E0,1.0424833E0],"tree_param":{"num_deleted":"0","num_feature":"25","num_nodes":"29","size_leaf_vector":"1"}},{"base_weights":[2.5653625E-3,-2.4384776E-1,4.9114406E-1,-8.910724E-1,-1.2879574E-1,2.785359E-1,8.9619446E-1,-4.9585808E-2,-3.097998E-1,-1.7516613E-1,7.3193634E-1,4.0882072E-1,-6.781354E-1,4.979767E-2,2.3587348E-1,9.7492365E-3,-3.3689484E-2,-5.4064076E-3,-3.8189568E-2,6.1633278E-2,-1.8002406E-2,-4.4130534E-4,3.478937E-2,6.9689266E-3,-6.0857337E-2,3.2783132E-2,-1.9416977E-2],"categories":[],"categories_nodes":[],"categories_segments":[],"categories_sizes":[],"default_left":[0,0,0,0,0,0,0,0,0,0,0,0,0,0,0,0,0,0,0,0,0,0,0,0,0,0,0],"id":45,"left_children":[1,3,5,7,9,11,13,-1,15,17,19,21,23,-1,25,-1,-1,-1,-1,-1,-1,-1,-1,-1,-1,-1,-1],"loss_changes":[1.8251884E1,7.390061E0,4.12726E0,5.7277966E-1,3.5902743E0,4.612336E0,8.878031E-1,0E0,8.065063E-1,3.197116E0,2.9739501E0,3.7497964E0,2.1724138E0,0E0,1.1841433E0,0E0,0E0,0E0,0E0,0E0,0E0,0E0,0E0,0E0,0E0,0E0,0E0],"parents":[2147483647,0,0,1,1,2,2,3,3,4,4,5,5,6,6,8,8,9,9,10,10,11,11,12,12,14,14],"right_children":[2,4,6,8,10,12,14,-1,16,18,20,22,24,-1,26,-1,-1,-1,-1,-1,-1,-1,-1,-1,-1,-1,-1],"split_conditions":[-1.0761383E-2,-6.987547E-1,4.608868E-1,1.6398921E0,1.0589421E0,1.2195427E0,2.4563372E0,-4.9585808E-2,-1.0016959E0,3.6193302E-1,-9.3633726E-2,-1.4718924E-1,5.497796E-1,4.979767E-2,7.7194715E-1,9.7492365E-3,-3.3689484E-2,-5.4064076E-3,-3.8189568E-2,6.1633278E-2,-1.8002406E-2,-4.4130534E-4,3.478937E-2,6.9689266E-3,-6.0857337E-2,3.2783132E-2,-1.9416977E-2],"split_indices":[15,1,1,13,11,14,0,0,17,23,17,23,21,0,10,0,0,0,0,0,0,0,0,0,0,0,0],"split_type":[0,0,0,0,0,0,0,0,0,0,0,0,0,0,0,0,0,0,0,0,0,0,0,0,0,0,0],"sum_hessian":[1.4960876E2,9.978394E1,4.9824814E1,1.4042572E1,8.574137E1,3.378104E1,1.6043776E1,1.1368137E1,2.6744344E0,8.211412E1,3.627258E0,3.0235996E1,3.5450428E0,1.3496489E1,2.547288E0,1.3150392E0,1.3593953E0,7.478107E1,7.3330503E0,2.3985658E0,1.2286922E0,1.2708901E1,1.7527096E1,1.7032127E0,1.8418299E0,1.4929094E0,1.0543784E0],"tree_param":{"num_deleted":"0","num_feature":"25","num_nodes":"27","size_leaf_vector":"1"}},{"base_weights":[2.3155294E-3,-5.461791E-1,2.1062677E-1,-6.4125615E-1,4.2598683E-1,3.5681102E-2,7.3774225E-1,-4.6428215E-2,-4.6251228E-1,-1.4945306E-2,4.4521857E-2,6.043276E-1,-4.731302E-2,-1.9202054E-2,7.9580814E-1,2.5430812E-2,-2.8739352E-2,4.1484702E-2,-1.2494495E-2,2.7324984E-2,-6.474074E-3,4.4395696E-2,-1.6104566E-3],"categories":[],"categories_nodes":[],"categories_segments":[],"categories_sizes":[],"default_left":[0,0,0,0,0,0,0,0,0,0,0,0,0,0,0,0,0,0,0,0,0,0,0],"id":46,"left_children":[1,3,5,7,9,11,13,-1,15,-1,-1,17,19,-1,21,-1,-1,-1,-1,-1,-1,-1,-1],"loss_changes":[1.7148361E1,4.0916786E0,1.0003708E1,1.5235891E0,1.7075422E0,3.9322047E0,2.0677462E0,0E0,3.0658712E0,0E0,0E0,2.2493372E0,3.6378214E0,0E0,2.0150452E0,0E0,0E0,0E0,0E0,0E0,0E0,0E0,0E0],"parents":[2147483647,0,0,1,1,2,2,3,3,4,4,5,5,6,6,8,8,11,11,12,12,14,14],"right_children":[2,4,6,8,10,12,14,-1,16,-1,-1,18,20,-1,22,-1,-1,-1,-1,-1,-1,-1,-1],"split_conditions":[-3.8769493E-1,-1.6414095E-1,2.3680346E-1,-6.987547E-1,-2.3640595E-1,-7.0985615E-1,-8.3304787E-1,-4.6428215E-2,-7.5959355E-1,-1.4945306E-2,4.4521857E-2,-3.751516E-2,-4.8731405E-1,-1.9202054E-2,1.2408888E0,2.5430812E-2,-2.8739352E-2,4.1484702E-2,-1.2494495E-2,2.7324984E-2,-6.474074E-3,4.4395696E-2,-1.6104566E-3],"split_indices":[15,19,1,1,12,11,13,0,10,0,0,12,19,0,14,0,0,0,0,0,0,0,0],"split_type":[0,0,0,0,0,0,0,0,0,0,0,0,0,0,0,0,0,0,0,0,0,0,0],"sum_hessian":[1.4807823E2,4.0312176E1,1.0776605E2,3.703096E1,3.2812138E0,8.1713615E1,2.6052443E1,1.2593522E1,2.443744E1,1.420536E0,1.8606778E0,9.607161E0,7.210645E1,1.0058768E0,2.5046566E1,2.1666589E0,2.227078E1,7.624352E0,1.9828082E0,8.077955E0,6.4028496E1,2.2474268E1,2.572298E0],"tree_param":{"num_deleted":"0","num_feature":"25","num_nodes":"23","size_leaf_vector":"1"}},{"base_weights":[2.5987204E-3,-2.4414529E-1,4.3707082E-1,-8.7297183E-1,-1.3217351E-1,-1.3704053E-1,5.765923E-1,-4.896347E-2,-2.8617245E-1,3.2941616E-1,-2.2315645E-1,-5.6179166E-1,6.4519405E-1,7.49933E-2,6.939278E-1,1.0457873E-2,-3.2749567E-2,2.4986756E-4,6.947605E-2,-1.5556927E-2,1.1238224E-2,1.2504925E-2,-4.4311937E-2,4.6717934E-2,-6.425096E-3,-1.2795384E-2,3.979998E-2,4.423911E-2,1.38511155E-2],"categories":[],"categories_nodes":[],"categories_segments":[],"categories_sizes":[],"default_left":[0,0,0,0,0,0,0,0,0,0,0,0,0,0,0,0,0,0,0,0,0,0,0,0,0,0,0,0,0],"id":47,"left_children":[1,3,5,7,9,11,13,-1,15,17,19,21,23,25,27,-1,-1,-1,-1,-1,-1,-1,-1,-1,-1,-1,-1,-1,-1],"loss_changes":[1.5919828E1,6.553871E0,4.387372E0,6.016464E-1,3.4996414E0,4.1248293E0,2.5059843E0,0E0,7.9124224E-1,4.7516413E0,2.779081E0,2.2956052E0,1.1157327E0,2.4369974E0,2.5479145E0,0E0,0E0,0E0,0E0,0E0,0E0,0E0,0E0,0E0,0E0,0E0,0E0,0E0,0E0],"parents":[2147483647,0,0,1,1,2,2,3,3,4,4,5,5,6,6,8,8,9,9,10,10,11,11,12,12,13,13,14,14],"right_children":[2,4,6,8,10,12,14,-1,16,18,20,22,24,26,28,-1,-1,-1,-1,-1,-1,-1,-1,-1,-1,-1,-1,-1,-1],"split_conditions":[-5.8972873E-2,-6.987547E-1,-2.325903E-1,1.6398921E0,-7.270083E-1,-2.3711343E-1,-6.5811473E-1,-4.896347E-2,-1.0016959E0,1.5313719E-1,-5.6917623E-2,-6.242154E-1,5.1015764E-1,2.6898E-1,1.3275075E-2,1.0457873E-2,-3.2749567E-2,2.4986756E-4,6.947605E-2,-1.5556927E-2,1.1238224E-2,1.2504925E-2,-4.4311937E-2,4.6717934E-2,-6.425096E-3,-1.2795384E-2,3.979998E-2,4.423911E-2,1.38511155E-2],"split_indices":[1,1,21,13,23,23,12,0,17,13,15,13,0,10,8,0,0,0,0,0,0,0,0,0,0,0,0,0,0],"split_type":[0,0,0,0,0,0,0,0,0,0,0,0,0,0,0,0,0,0,0,0,0,0,0,0,0,0,0,0,0],"sum_hessian":[1.4650578E2,9.3719154E1,5.278662E1,1.3138396E1,8.0580765E1,1.0323726E1,4.24629E1,1.05571575E1,2.581239E0,1.2836399E1,6.774436E1,6.873336E0,3.4503899E0,8.360714E0,3.4102184E1,1.2864347E0,1.2948042E0,1.0597891E1,2.2385077E0,5.687764E1,1.0866721E1,2.0279038E0,4.845432E0,2.360507E0,1.0898827E0,6.172812E0,2.1879017E0,2.2623262E1,1.1478921E1],"tree_param":{"num_deleted":"0","num_feature":"25","num_nodes":"29","size_leaf_vector":"1"}},{"base_weights":[3.1489336E-3,-4.7465974E-1,2.168294E-1,-8.2556236E-1,-2.655601E-1,9.760769E-2,8.71879E-1,1.4522554E-2,-9.224971E-1,6.1893415E-2,-4.1183594E-1,8.270831E-1,1.6038485E-2,4.9043912E-2,1.9925235E-1,-5.9216223E-3,-4.9034066E-2,-3.7837498E-2,8.926536E-4,-1.8479265E-2,5.2478444E-2,3.7137296E-2,-2.8555647E-3,3.1683248E-2,-2.0712541E-2],"categories":[],"categories_nodes":[],"categories_segments":[],"categories_sizes":[],"default_left":[0,0,0,0,0,0,0,0,0,0,0,0,0,0,0,0,0,0,0,0,0,0,0,0,0],"id":48,"left_children":[1,3,5,7,9,11,13,-1,15,-1,17,19,21,-1,23,-1,-1,-1,-1,-1,-1,-1,-1,-1,-1],"loss_changes":[1.5003062E1,3.1127253E0,7.8438516E0,2.05095E0,7.091666E0,5.1647205E0,9.414778E-1,0E0,6.0451794E-1,0E0,4.1670823E0,2.7127771E0,4.257291E0,0E0,1.1732857E0,0E0,0E0,0E0,0E0,0E0,0E0,0E0,0E0,0E0,0E0],"parents":[2147483647,0,0,1,1,2,2,3,3,4,4,5,5,6,6,8,8,10,10,11,11,12,12,14,14],"right_children":[2,4,6,8,10,12,14,-1,16,-1,18,20,22,-1,24,-1,-1,-1,-1,-1,-1,-1,-1,-1,-1],"split_conditions":[-3.1973413E-1,-3.4467444E-1,4.608868E-1,-1.3824165E0,-3.08601E-1,-7.215506E-1,2.4563372E0,1.4522554E-2,-1.0517821E0,6.1893415E-2,-4.765956E-1,-3.5548672E-1,-9.7929215E-1,4.9043912E-2,9.455711E-1,-5.9216223E-3,-4.9034066E-2,-3.7837498E-2,8.926536E-4,-1.8479265E-2,5.2478444E-2,3.7137296E-2,-2.8555647E-3,3.1683248E-2,-2.0712541E-2],"split_indices":[1,6,1,14,24,11,0,0,17,0,1,19,9,0,1,0,0,0,0,0,0,0,0,0,0],"split_type":[0,0,0,0,0,0,0,0,0,0,0,0,0,0,0,0,0,0,0,0,0,0,0,0,0],"sum_hessian":[1.4493904E2,4.441091E1,1.0052813E2,1.5481801E1,2.8929111E1,8.602097E1,1.4507161E1,1.0777116E0,1.440409E1,1.9033941E0,2.7025717E1,7.732187E0,7.828878E1,1.2089738E1,2.417424E0,1.1768149E0,1.3227275E1,1.4569518E1,1.2456199E1,1.1085491E0,6.6236377E0,6.3226423E0,7.196614E1,1.3960432E0,1.0213809E0],"tree_param":{"num_deleted":"0","num_feature":"25","num_nodes":"25","size_leaf_vector":"1"}},{"base_weights":[3.7953202E-3,-5.055734E-1,1.9188637E-1,-6.018952E-1,4.3183553E-1,3.4035034E-2,7.021817E-1,-4.8144486E-2,-4.4920024E-1,-1.41045125E-2,4.378819E-2,7.358038E-2,-5.30107E-2,-1.6172856E-2,7.625161E-1,2.546881E-2,-2.8069068E-2,-1.0264929E-3,3.6304686E-2,4.306554E-2,-3.3945793E-3],"categories":[],"categories_nodes":[],"categories_segments":[],"categories_sizes":[],"default_left":[0,0,0,0,0,0,0,0,0,0,0,0,0,0,0,0,0,0,0,0,0],"id":49,"left_children":[1,3,5,7,9,11,13,-1,15,-1,-1,17,-1,-1,19,-1,-1,-1,-1,-1,-1],"loss_changes":[1.3920434E1,3.7980824E0,8.522348E0,1.5492105E0,1.5887764E0,3.6299317E0,1.7945948E0,0E0,3.2043867E0,0E0,0E0,4.9370723E0,0E0,0E0,2.0211124E0,0E0,0E0,0E0,0E0,0E0,0E0],"parents":[2147483647,0,0,1,1,2,2,3,3,4,4,5,5,6,6,8,8,11,11,14,14],"right_children":[2,4,6,8,10,12,14,-1,16,-1,-1,18,-1,-1,20,-1,-1,-1,-1,-1,-1],"split_conditions":[-3.8769493E-1,-1.6414095E-1,2.3680346E-1,-7.7808595E-1,-2.3640595E-1,1.064603E0,-8.1580204E-1,-4.8144486E-2,-7.881242E-1,-1.41045125E-2,4.378819E-2,2.2178638E-1,-5.30107E-2,-1.6172856E-2,1.2408888E0,2.546881E-2,-2.8069068E-2,-1.0264929E-3,3.6304686E-2,4.306554E-2,-3.3945793E-3],"split_indices":[15,19,1,1,12,12,13,0,10,0,0,12,0,0,14,0,0,0,0,0,0],"split_type":[0,0,0,0,0,0,0,0,0,0,0,0,0,0,0,0,0,0,0,0,0],"sum_hessian":[1.4328299E2,3.8185375E1,1.0509761E2,3.4951874E1,3.2335029E0,8.1082726E1,2.4014887E1,8.812292E0,2.6139582E1,1.3795189E0,1.8539841E0,7.9154884E1,1.9278414E0,1.0919251E0,2.2922962E1,2.3676436E0,2.3771938E1,7.002404E1,9.130841E0,2.045249E1,2.470473E0],